{
  "config": {
    "d": 4,
    "m": 3,
    "l": 4,
    "p": 5,
    "q": 3,
    "V": 12,
    "encoderTokens": [
      "Me",
      "encantó",
      "la",
      "pizza",
      "de",
      "este",
      "lugar"
    ],
    "vocab": [
      "<START>",
      "<END>",
      "I",
      "you",
      "loved",
      "hated",
      "this",
      "that",
      "place's",
      "food",
      "pizza",
      "the"
    ],
    "embeddings": {
      "Me": [
        0.3,
        -0.2,
        0.5,
        0.1
      ],
      "encantó": [
        0.8,
        0.6,
        -0.1,
        0.4
      ],
      "la": [
        -0.1,
        0.2,
        0.3,
        -0.2
      ],
      "pizza": [
        0.6,
        0.1,
        0.7,
        0.5
      ],
      "de": [
        0.0,
        0.3,
        -0.4,
        0.2
      ],
      "este": [
        0.2,
        -0.1,
        0.1,
        0.6
      ],
      "lugar": [
        0.5,
        0.4,
        0.2,
        -0.3
      ],
      "<START>": [
        0.0,
        0.0,
        0.0,
        0.0
      ],
      "<END>": [
        0.1,
        0.1,
        0.1,
        0.1
      ],
      "I": [
        0.4,
        -0.3,
        0.2,
        0.5
      ],
      "you": [
        0.35,
        -0.25,
        0.15,
        0.45
      ],
      "loved": [
        0.75,
        0.55,
        -0.15,
        0.35
      ],
      "hated": [
        -0.75,
        -0.55,
        0.15,
        -0.35
      ],
      "this": [
        0.15,
        -0.05,
        0.05,
        0.55
      ],
      "that": [
        0.1,
        -0.1,
        0.0,
        0.5
      ],
      "place's": [
        0.45,
        0.35,
        0.15,
        -0.25
      ],
      "food": [
        0.55,
        0.05,
        0.65,
        0.45
      ],
      "the": [
        -0.05,
        0.25,
        0.25,
        -0.15
      ]
    }
  },
  "scenarios": {
    "GRU_sentiment": {
      "encoder": {
        "weights": {
          "layer1": {
            "W_ih_r": [
              [
                -0.13,
                0.45,
                0.23,
                0.1
              ],
              [
                -0.34,
                -0.34,
                -0.44,
                0.37
              ],
              [
                0.1,
                0.21,
                -0.48,
                0.47
              ]
            ],
            "W_hh_r": [
              [
                0.33,
                -0.29,
                -0.32
              ],
              [
                -0.32,
                -0.2,
                0.02
              ],
              [
                -0.07,
                -0.21,
                0.11
              ]
            ],
            "b_r": [
              0.0,
              0.0,
              0.0
            ],
            "W_ih_z": [
              [
                -0.36,
                -0.21,
                -0.13,
                -0.04
              ],
              [
                0.29,
                -0.3,
                0.01,
                0.09
              ],
              [
                -0.45,
                0.11,
                -0.33,
                -0.43
              ]
            ],
            "W_hh_z": [
              [
                0.45,
                0.47,
                0.31
              ],
              [
                -0.2,
                -0.4,
                0.18
              ],
              [
                -0.06,
                -0.38,
                -0.0
              ]
            ],
            "b_z": [
              0.1,
              0.1,
              0.1
            ],
            "W_ih_n": [
              [
                -0.47,
                0.41,
                -0.24,
                0.16
              ],
              [
                -0.19,
                0.02,
                0.05,
                -0.32
              ],
              [
                0.47,
                0.28,
                0.44,
                0.39
              ]
            ],
            "W_hh_n": [
              [
                0.1,
                0.42,
                -0.41
              ],
              [
                -0.3,
                -0.45,
                -0.17
              ],
              [
                -0.11,
                -0.23,
                0.33
              ]
            ],
            "b_n": [
              0.0,
              0.0,
              0.0
            ]
          },
          "layer2": {
            "W_ih_r": [
              [
                -0.14,
                -0.22,
                0.04
              ],
              [
                -0.36,
                0.3,
                -0.43
              ],
              [
                0.49,
                0.27,
                -0.3
              ],
              [
                -0.49,
                0.32,
                0.21
              ]
            ],
            "W_hh_r": [
              [
                0.23,
                0.27,
                -0.43,
                -0.14
              ],
              [
                -0.38,
                0.36,
                0.12,
                -0.17
              ],
              [
                -0.44,
                -0.19,
                -0.17,
                0.23
              ],
              [
                0.14,
                0.39,
                -0.03,
                -0.38
              ]
            ],
            "b_r": [
              0.0,
              0.0,
              0.0,
              0.0
            ],
            "W_ih_z": [
              [
                0.21,
                0.26,
                0.06
              ],
              [
                0.27,
                -0.01,
                0.02
              ],
              [
                -0.07,
                -0.47,
                -0.39
              ],
              [
                -0.47,
                0.14,
                -0.19
              ]
            ],
            "W_hh_z": [
              [
                0.01,
                0.41,
                -0.25,
                -0.09
              ],
              [
                0.26,
                -0.27,
                -0.42,
                -0.21
              ],
              [
                -0.34,
                0.43,
                0.31,
                0.13
              ],
              [
                0.37,
                0.3,
                -0.31,
                0.39
              ]
            ],
            "b_z": [
              -1.5,
              -1.5,
              -1.5,
              -1.5
            ],
            "W_ih_n": [
              [
                0.12,
                0.92,
                1.19
              ],
              [
                -0.55,
                -1.17,
                -0.82
              ],
              [
                -0.22,
                0.95,
                1.08
              ],
              [
                -1.48,
                0.03,
                -0.25
              ]
            ],
            "W_hh_n": [
              [
                -0.06,
                -0.08,
                -0.03,
                0.09
              ],
              [
                -0.04,
                0.0,
                0.04,
                -0.03
              ],
              [
                0.09,
                0.09,
                -0.05,
                -0.0
              ],
              [
                -0.04,
                -0.04,
                -0.09,
                0.02
              ]
            ],
            "b_n": [
              0.0,
              0.0,
              0.0,
              0.0
            ]
          }
        },
        "timesteps": [
          {
            "t": 1,
            "input": "Me",
            "layer1": {
              "h_prev": [
                0.0,
                0.0,
                0.0
              ],
              "x_t": [
                0.3,
                -0.2,
                0.5,
                0.1
              ],
              "gates": {
                "reset": {
                  "W_ih_x": [
                    -0.0040000000000000036,
                    -0.217,
                    -0.20500000000000002
                  ],
                  "W_hh_h": [
                    0.0,
                    0.0,
                    0.0
                  ],
                  "sum": [
                    -0.0040000000000000036,
                    -0.217,
                    -0.20500000000000002
                  ],
                  "sigmoid": [
                    0.49900000133333117,
                    0.44596188383693597,
                    0.448928730692658
                  ]
                },
                "update": {
                  "W_ih_x": [
                    -0.135,
                    0.16099999999999998,
                    -0.365
                  ],
                  "W_hh_h": [
                    0.0,
                    0.0,
                    0.0
                  ],
                  "sum": [
                    -0.035,
                    0.261,
                    -0.265
                  ],
                  "sigmoid": [
                    0.4912508931197597,
                    0.5648820980443233,
                    0.4341349971045183
                  ]
                },
                "candidate": {
                  "W_ih_x": [
                    -0.32699999999999996,
                    -0.068,
                    0.344
                  ],
                  "W_hh_rh": [
                    0.0,
                    0.0,
                    0.0
                  ],
                  "sum": [
                    -0.32699999999999996,
                    -0.068,
                    0.344
                  ],
                  "tanh": [
                    -0.3158225731514681,
                    -0.06789538282899303,
                    0.3310437384241189
                  ]
                }
              },
              "h_t": [
                -0.16067445202342878,
                -0.029542496529028923,
                0.1873260660018951
              ]
            },
            "layer2": {
              "h_prev": [
                0.0,
                0.0,
                0.0,
                0.0
              ],
              "x_t": [
                -0.16067445202342878,
                -0.029542496529028923,
                0.1873260660018951
              ],
              "gates": {
                "reset": {
                  "W_ih_x": [
                    0.0364868151597422,
                    -0.03157015461108921,
                    -0.14290477535488644,
                    0.10861535646258881
                  ],
                  "W_hh_h": [
                    0.0,
                    0.0,
                    0.0,
                    0.0
                  ],
                  "sum": [
                    0.0364868151597422,
                    -0.03157015461108921,
                    -0.14290477535488644,
                    0.10861535646258881
                  ],
                  "sigmoid": [
                    0.5091206919569827,
                    0.4921081168063411,
                    0.46433448161139573,
                    0.5271271754154662
                  ]
                },
                "update": {
                  "W_ih_x": [
                    -0.03018312006235386,
                    -0.039340155760997586,
                    -0.04792498073045548,
                    0.0357890903965874
                  ],
                  "W_hh_h": [
                    0.0,
                    0.0,
                    0.0,
                    0.0
                  ],
                  "sum": [
                    -1.530183120062354,
                    -1.5393401557609976,
                    -1.5479249807304556,
                    -1.4642109096034126
                  ],
                  "sigmoid": [
                    0.17796689471567356,
                    0.17663121718738137,
                    0.1753861674961037,
                    0.1878241222968778
                  ]
                },
                "candidate": {
                  "W_ih_x": [
                    0.1764579874927371,
                    -0.030671704569704306,
                    0.2095951590246236,
                    0.19008039759832995
                  ],
                  "W_hh_rh": [
                    0.0,
                    0.0,
                    0.0,
                    0.0
                  ],
                  "sum": [
                    0.1764579874927371,
                    -0.030671704569704306,
                    0.2095951590246236,
                    0.19008039759832995
                  ],
                  "tanh": [
                    0.1746490323997446,
                    -0.03066209001691256,
                    0.20657896772113798,
                    0.1878237683898679
                  ]
                }
              },
              "h_t": [
                0.143567286438465,
                -0.02524620773571624,
                0.17034787428722628,
                0.15254593394554888
              ]
            }
          },
          {
            "t": 2,
            "input": "encantó",
            "layer1": {
              "h_prev": [
                -0.16067445202342878,
                -0.029542496529028923,
                0.1873260660018951
              ],
              "x_t": [
                0.8,
                0.6,
                -0.1,
                0.4
              ],
              "gates": {
                "reset": {
                  "W_ih_x": [
                    0.18300000000000002,
                    -0.28400000000000003,
                    0.442
                  ],
                  "W_hh_h": [
                    -0.10439958629491955,
                    0.061070845273340904,
                    0.038057003172944553
                  ],
                  "sum": [
                    0.07860041370508047,
                    -0.22292915472665914,
                    0.48005700317294453
                  ],
                  "sigmoid": [
                    0.5196399931031654,
                    0.4444973825038076,
                    0.6177613351481092
                  ]
                },
                "update": {
                  "W_ih_x": [
                    -0.417,
                    0.087,
                    -0.43300000000000005
                  ],
                  "W_hh_h": [
                    -0.028117396318599067,
                    0.07767058089663845,
                    0.02086661580243672
                  ],
                  "sum": [
                    -0.34511739631859906,
                    0.2646705808966384,
                    -0.3121333841975633
                  ],
                  "sigmoid": [
                    0.4145669383583433,
                    0.56578407544997,
                    0.42259408958250133
                  ]
                },
                "candidate": {
                  "W_ih_x": [
                    -0.04200000000000004,
                    -0.273,
                    0.656
                  ],
                  "W_hh_rh": [
                    -0.06131089157660219,
                    0.01128418830426085,
                    0.05039299938454698
                  ],
                  "sum": [
                    -0.10331089157660223,
                    -0.26171581169573915,
                    0.706392999384547
                  ],
                  "tanh": [
                    -0.10294490344688836,
                    -0.25589968776471694,
                    0.6084099938512907
                  ]
                }
              },
              "h_t": [
                -0.12687766565307398,
                -0.12783039359998113,
                0.4304624147239517
              ]
            },
            "layer2": {
              "h_prev": [
                0.143567286438465,
                -0.02524620773571624,
                0.17034787428722628,
                0.15254593394554888
              ],
              "x_t": [
                -0.12687766565307398,
                -0.12783039359998113,
                0.4304624147239517
              ],
              "gates": {
                "reset": {
                  "W_ih_x": [
                    0.06310405637238428,
                    -0.17777199677618694,
                    -0.22582298685918667,
                    0.11166143731004213
                  ],
                  "W_hh_h": [
                    -0.06840201690368058,
                    -0.0691352674877507,
                    -0.052246400384490736,
                    -0.0528244920434696
                  ],
                  "sum": [
                    -0.005297960531296303,
                    -0.24690726426393764,
                    -0.2780693872436774,
                    0.058836945266572536
                  ],
                  "sigmoid": [
                    0.49867551296519225,
                    0.4385848725895511,
                    0.43092715491106937,
                    0.5147049944325668
                  ]
                },
                "update": {
                  "W_ih_x": [
                    -0.03405246723970353,
                    -0.024369417495851132,
                    -0.09891862015463486,
                    -0.04005161104460341
                  ],
                  "W_hh_h": [
                    -0.06523137493416498,
                    -0.059436782766556014,
                    0.012970065726525412,
                    0.0522311068712411
                  ],
                  "sum": [
                    -1.5992838421738684,
                    -1.5838062002624071,
                    -1.5859485544281093,
                    -1.4878205041733623
                  ],
                  "sigmoid": [
                    0.16808173160071258,
                    0.1702571064940806,
                    0.16995467069043363,
                    0.18424908319460992
                  ]
                },
                "candidate": {
                  "W_ih_x": [
                    0.37942099153115105,
                    -0.13363490345247175,
                    0.37137362042556205,
                    0.07632842967756213
                  ],
                  "W_hh_rh": [
                    0.0014544270947093535,
                    -0.002282923238383805,
                    0.0017765034460053932,
                    -0.007457189567677125
                  ],
                  "sum": [
                    0.3808754186258604,
                    -0.13591782669085556,
                    0.37315012387156743,
                    0.068871240109885
                  ],
                  "tanh": [
                    0.36346747749905456,
                    -0.13508699914603808,
                    0.35674401566279673,
                    0.06876255519560676
                  ]
                }
              },
              "h_t": [
                0.32650627260626314,
                -0.11638582382549684,
                0.3250651208373441,
                0.08419956591723035
              ]
            }
          },
          {
            "t": 3,
            "input": "la",
            "layer1": {
              "h_prev": [
                -0.12687766565307398,
                -0.12783039359998113,
                0.4304624147239517
              ],
              "x_t": [
                -0.1,
                0.2,
                0.3,
                -0.2
              ],
              "gates": {
                "reset": {
                  "W_ih_x": [
                    0.15200000000000002,
                    -0.24000000000000002,
                    -0.206
                  ],
                  "W_hh_h": [
                    -0.14254678823318445,
                    0.07477618002345894,
                    0.08307668487134591
                  ],
                  "sum": [
                    0.009453211766815572,
                    -0.16522381997654106,
                    -0.12292331512865408
                  ],
                  "sigmoid": [
                    0.5023632853424992,
                    0.45878775649005343,
                    0.46930780843486397
                  ]
                },
                "update": {
                  "W_ih_x": [
                    -0.037000000000000005,
                    -0.104,
                    0.054000000000000006
                  ],
                  "W_hh_h": [
                    0.016268114028550607,
                    0.15399092522091856,
                    0.05618820950717727
                  ],
                  "sum": [
                    0.07926811402855061,
                    0.14999092522091856,
                    0.2101882095071773
                  ],
                  "sigmoid": [
                    0.5198066584406558,
                    0.5374275893619178,
                    0.5523544465295248
                  ]
                },
                "candidate": {
                  "W_ih_x": [
                    0.02500000000000001,
                    0.10200000000000001,
                    0.063
                  ],
                  "W_hh_rh": [
                    -0.11383355899336409,
                    0.011169469737653606,
                    0.08716646230220514
                  ],
                  "sum": [
                    -0.08883355899336408,
                    0.11316946973765361,
                    0.15016646230220515
                  ],
                  "tanh": [
                    -0.08860062049874157,
                    0.11268879915731539,
                    0.1490478019612344
                  ]
                }
              },
              "h_t": [
                -0.10849728343539719,
                -0.016572850801512926,
                0.30448841463910564
              ]
            },
            "layer2": {
              "h_prev": [
                0.32650627260626314,
                -0.11638582382549684,
                0.3250651208373441,
                0.08419956591723035
              ],
              "x_t": [
                -0.10849728343539719,
                -0.016572850801512926,
                0.30448841463910564
              ],
              "gates": {
                "reset": {
                  "W_ih_x": [
                    0.03101518344285268,
                    -0.09684285149852631,
                    -0.1489848629914848,
                    0.11180292370107267
                  ],
                  "W_hh_h": [
                    -0.10789367092191385,
                    -0.14127739187300672,
                    -0.15744462380129692,
                    -0.04142738180073478
                  ],
                  "sum": [
                    -0.07687848747906117,
                    -0.23812024337153304,
                    -0.3064294867927817,
                    0.07037554190033789
                  ],
                  "sigmoid": [
                    0.4807898386860038,
                    0.44074963907065684,
                    0.42398649902946955,
                    0.5175866276085217
                  ]
                },
                "update": {
                  "W_ih_x": [
                    -0.008824065851480434,
                    -0.02303876972676,
                    -0.10336643199206233,
                    -0.009179274679005207
                  ],
                  "W_hh_h": [
                    -0.13329736618427782,
                    -0.03789345628379036,
                    -0.04934190590227648,
                    0.017959216964811467
                  ],
                  "sum": [
                    -1.6421214320357582,
                    -1.5609322260105503,
                    -1.6527083378943388,
                    -1.4912200577141936
                  ],
                  "sigmoid": [
                    0.16217660563131187,
                    0.17351291935054952,
                    0.1607432458532336,
                    0.18373867404994607
                  ]
                },
                "candidate": {
                  "W_ih_x": [
                    0.33407451667089616,
                    -0.17061675867682802,
                    0.3369726819045842,
                    0.08395669030056603
                  ],
                  "W_hh_rh": [
                    -0.005527538533642163,
                    -0.002073724104912685,
                    0.002620388819286585,
                    -0.015759834172945714
                  ],
                  "sum": [
                    0.328546978137254,
                    -0.1726904827817407,
                    0.3395930707238708,
                    0.06819685612762032
                  ],
                  "tanh": [
                    0.31721456846121765,
                    -0.17099405754161318,
                    0.3271140568173831,
                    0.06809132887110904
                  ]
                }
              },
              "h_t": [
                0.31872146549999153,
                -0.1615188234889527,
                0.32678470419740613,
                0.07105103498724559
              ]
            }
          },
          {
            "t": 4,
            "input": "pizza",
            "layer1": {
              "h_prev": [
                -0.10849728343539719,
                -0.016572850801512926,
                0.30448841463910564
              ],
              "x_t": [
                0.6,
                0.1,
                0.7,
                0.5
              ],
              "gates": {
                "reset": {
                  "W_ih_x": [
                    0.17800000000000002,
                    -0.361,
                    -0.019999999999999976
                  ],
                  "W_hh_h": [
                    -0.12843426948575615,
                    0.044123469152411804,
                    0.044568834119097143
                  ],
                  "sum": [
                    0.04956573051424387,
                    -0.31687653084758816,
                    0.024568834119097167
                  ],
                  "sigmoid": [
                    0.5123888963519648,
                    0.42143714924990977,
                    0.506141899581202
                  ]
                },
                "update": {
                  "W_ih_x": [
                    -0.348,
                    0.19599999999999998,
                    -0.705
                  ],
                  "W_hh_h": [
                    0.03777839111548294,
                    0.08313651164272362,
                    0.012807520310698744
                  ],
                  "sum": [
                    -0.21022160888451705,
                    0.37913651164272355,
                    -0.5921924796893012
                  ],
                  "sigmoid": [
                    0.44763729518787637,
                    0.5936648231720463,
                    0.35613195593214625
                  ]
                },
                "candidate": {
                  "W_ih_x": [
                    -0.32899999999999996,
                    -0.237,
                    0.813
                  ],
                  "W_hh_rh": [
                    -0.0716796159105144,
                    -0.0063786108360789524,
                    0.05857935752742904
                  ],
                  "sum": [
                    -0.4006796159105144,
                    -0.24337861083607895,
                    0.871579357527429
                  ],
                  "tanh": [
                    -0.380530317781142,
                    -0.23868443932757583,
                    0.7021756734019673
                  ]
                }
              },
              "h_t": [
                -0.2587581860848621,
                -0.1068246024007884,
                0.5605465320894557
              ]
            },
            "layer2": {
              "h_prev": [
                0.31872146549999153,
                -0.1615188234889527,
                0.32678470419740613,
                0.07105103498724559
              ],
              "x_t": [
                -0.2587581860848621,
                -0.1068246024007884,
                0.5605465320894557
              ],
              "gates": {
                "reset": {
                  "W_ih_x": [
                    0.08214941986363238,
                    -0.1799294425281521,
                    -0.323798113456632,
                    0.21032241015211584
                  ],
                  "W_hh_h": [
                    -0.1207687129801182,
                    -0.15212544479016277,
                    -0.14876053002358783,
                    -0.05517427041176824
                  ],
                  "sum": [
                    -0.03861929311648582,
                    -0.3320548873183149,
                    -0.4725586434802198,
                    0.15514813974034758
                  ],
                  "sigmoid": [
                    0.49034637651562346,
                    0.4177407215820431,
                    0.38401082607685055,
                    0.538709418377217
                  ]
                },
                "update": {
                  "W_ih_x": [
                    -0.04848082377665868,
                    -0.057585533577115766,
                    -0.15029251136057684,
                    0.0001570620267782319
                  ],
                  "W_hh_h": [
                    -0.1511262721736743,
                    -0.025692629738217093,
                    -0.06727849952070895,
                    -0.004122059467859068
                  ],
                  "sum": [
                    -1.6996070959503329,
                    -1.5832781633153328,
                    -1.7175710108812858,
                    -1.503964997441081
                  ],
                  "sigmoid": [
                    0.15451658757741152,
                    0.17033171506399253,
                    0.15218429742241882,
                    0.1818349029784303
                  ]
                },
                "candidate": {
                  "W_ih_x": [
                    0.5377207566475435,
                    -0.19234636915775705,
                    0.5608336833145329,
                    0.23962074431120836
                  ],
                  "W_hh_rh": [
                    -0.0042990341239382895,
                    -0.002380077912694148,
                    0.0017185401163018529,
                    -0.014080917578162195
                  ],
                  "sum": [
                    0.5334217225236052,
                    -0.1947264470704512,
                    0.5625522234308348,
                    0.22553982673304618
                  ],
                  "tanh": [
                    0.4879923260510338,
                    -0.19230197552886258,
                    0.5098686218781188,
                    0.22179180110021088
                  ]
                }
              },
              "h_t": [
                0.46183717030239485,
                -0.1870586284468291,
                0.48200612449653557,
                0.19438186851916556
              ]
            }
          },
          {
            "t": 5,
            "input": "de",
            "layer1": {
              "h_prev": [
                -0.2587581860848621,
                -0.1068246024007884,
                0.5605465320894557
              ],
              "x_t": [
                0.0,
                0.3,
                -0.4,
                0.2
              ],
              "gates": {
                "reset": {
                  "W_ih_x": [
                    0.063,
                    0.148,
                    0.34900000000000003
                  ],
                  "W_hh_h": [
                    -0.2337859569804017,
                    0.11537847066910269,
                    0.10220635805994605
                  ],
                  "sum": [
                    -0.1707859569804017,
                    0.2633784706691027,
                    0.4512063580599461
                  ],
                  "sigmoid": [
                    0.45740698931567536,
                    0.5654666126174414,
                    0.6109260180748257
                  ]
                },
                "update": {
                  "W_ih_x": [
                    -0.018999999999999996,
                    -0.076,
                    0.079
                  ],
                  "W_hh_h": [
                    0.007120678081172754,
                    0.1953798539533898,
                    0.05611884007739132
                  ],
                  "sum": [
                    0.08812067808117277,
                    0.21937985395338983,
                    0.23511884007739134
                  ],
                  "sigmoid": [
                    0.5220159247599502,
                    0.5546260543090501,
                    0.5585104158159401
                  ]
                },
                "candidate": {
                  "W_ih_x": [
                    0.251,
                    -0.078,
                    -0.013999999999999999
                  ],
                  "W_hh_rh": [
                    -0.1776117025585494,
                    0.00447300825089824,
                    0.13992199197140498
                  ],
                  "sum": [
                    0.07338829744145059,
                    -0.07352699174910177,
                    0.12592199197140497
                  ],
                  "tanh": [
                    0.07325682806702845,
                    -0.07339477666047518,
                    0.12526063204505414
                  ]
                }
              },
              "h_t": [
                -0.10006029657965865,
                -0.09193582900706422,
                0.3683723410776686
              ]
            },
            "layer2": {
              "h_prev": [
                0.46183717030239485,
                -0.1870586284468291,
                0.48200612449653557,
                0.19438186851916556
              ],
              "x_t": [
                -0.10006029657965865,
                -0.09193582900706422,
                0.3683723410776686
              ],
              "gates": {
                "reset": {
                  "W_ih_x": [
                    0.048969217545813085,
                    -0.14995914859683965,
                    -0.18436392147924063,
                    0.09696827166808258
                  ],
                  "W_hh_h": [
                    -0.1787593756372865,
                    -0.2180434136644424,
                    -0.20490042693315916,
                    -0.09662095502410704
                  ],
                  "sum": [
                    -0.12979015809147343,
                    -0.36800256226128203,
                    -0.38926434841239976,
                    0.00034731664397553985
                  ],
                  "sigmoid": [
                    0.46759793342268285,
                    0.4090237609731678,
                    0.4038944063828969,
                    0.500086829160121
                  ]
                },
                "update": {
                  "W_ih_x": [
                    -0.022813637358904904,
                    -0.01872947496488382,
                    -0.09345115262639447,
                    -0.03583342147330646
                  ],
                  "W_hh_h": [
                    -0.21007156525103476,
                    -0.07267927071830316,
                    -0.06276830663353322,
                    0.041149194606385914
                  ],
                  "sum": [
                    -1.7328852026099397,
                    -1.591408745683187,
                    -1.6562194592599278,
                    -1.4946842268669205
                  ],
                  "sigmoid": [
                    0.15021890263715373,
                    0.16918578859084785,
                    0.16027014256859182,
                    0.18321969131602503
                  ]
                },
                "candidate": {
                  "W_ih_x": [
                    0.3417748876063675,
                    -0.1394672366266108,
                    0.332516356054696,
                    0.053238078798265726
                  ],
                  "W_hh_rh": [
                    -0.003928016707422665,
                    -0.003767215523608292,
                    0.0028158625650013033,
                    -0.021154713039156024
                  ],
                  "sum": [
                    0.33784687089894483,
                    -0.1432344521502191,
                    0.3353322186196973,
                    0.0320833657591097
                  ],
                  "tanh": [
                    0.3255538170375304,
                    -0.14226288662601108,
                    0.32330384369519916,
                    0.03207236203393535
                  ]
                }
              },
              "h_t": [
                0.3460261528126899,
                -0.1498416895314782,
                0.34873908086519,
                0.061810659709815585
              ]
            }
          },
          {
            "t": 6,
            "input": "este",
            "layer1": {
              "h_prev": [
                -0.10006029657965865,
                -0.09193582900706422,
                0.3683723410776686
              ],
              "x_t": [
                0.2,
                -0.1,
                0.1,
                0.6
              ],
              "gates": {
                "reset": {
                  "W_ih_x": [
                    0.011999999999999997,
                    0.144,
                    0.23299999999999998
                  ],
                  "W_hh_h": [
                    -0.12423765660409268,
                    0.05777390752845699,
                    0.06683170237060314
                  ],
                  "sum": [
                    -0.11223765660409268,
                    0.20177390752845697,
                    0.29983170237060314
                  ],
                  "sigmoid": [
                    0.4719700048413253,
                    0.5502730298982252,
                    0.5744013745419613
                  ]
                },
                "update": {
                  "W_ih_x": [
                    -0.088,
                    0.143,
                    -0.392
                  ],
                  "W_hh_h": [
                    0.025958452639910687,
                    0.12309341231273777,
                    0.04093923281746392
                  ],
                  "sum": [
                    0.0379584526399107,
                    0.36609341231273773,
                    -0.2510607671825361
                  ],
                  "sigmoid": [
                    0.509488473903011,
                    0.5905146729274182,
                    0.4375624254002732
                  ]
                },
                "candidate": {
                  "W_ih_x": [
                    -0.063,
                    -0.227,
                    0.344
                  ],
                  "W_hh_rh": [
                    -0.11272363229724372,
                    0.0009621423911998356,
                    0.08665633719424949
                  ],
                  "sum": [
                    -0.17572363229724372,
                    -0.22603785760880019,
                    0.43065633719424945
                  ],
                  "tanh": [
                    -0.17393698552019587,
                    -0.22226528069951784,
                    0.4058696733305338
                  ]
                }
              },
              "h_t": [
                -0.13629766401487411,
                -0.14530382716053886,
                0.3894622496839302
              ]
            },
            "layer2": {
              "h_prev": [
                0.3460261528126899,
                -0.1498416895314782,
                0.34873908086519,
                0.061810659709815585
              ],
              "x_t": [
                -0.13629766401487411,
                -0.14530382716053886,
                0.3894622496839302
              ],
              "gates": {
                "reset": {
                  "W_ih_x": [
                    0.06662700492475813,
                    -0.16199275646689695,
                    -0.22285656360581285,
                    0.10207570310954121
                  ],
                  "W_hh_h": [
                    -0.1194825381579863,
                    -0.15409206874700018,
                    -0.1688507782404274,
                    -0.04394482063918553
                  ],
                  "sum": [
                    -0.05285553323322817,
                    -0.31608482521389714,
                    -0.39170734184624023,
                    0.05813088247035568
                  ],
                  "sigmoid": [
                    0.48678919214279587,
                    0.42163020115243927,
                    0.4033063605653482,
                    0.5145286295865079
                  ]
                },
                "update": {
                  "W_ih_x": [
                    -0.043033769523827856,
                    -0.02755808601873202,
                    -0.07405664213023833,
                    -0.030280461155431343
                  ],
                  "W_hh_h": [
                    -0.15072256076996005,
                    -0.029026596597642562,
                    -0.06593631762436526,
                    -0.0009257881001290408
                  ],
                  "sum": [
                    -1.693756330293788,
                    -1.5565846826163745,
                    -1.6399929597546037,
                    -1.5312062492555605
                  ],
                  "sigmoid": [
                    0.15528248464786815,
                    0.1741372691971334,
                    0.16246602055033244,
                    0.1778172656717247
                  ]
                },
                "candidate": {
                  "W_ih_x": [
                    0.3134248364543962,
                    -0.0743898517548115,
                    0.312566079939405,
                    0.09999586550621498
                  ],
                  "W_hh_rh": [
                    -0.006409443769053544,
                    -0.0020658246969228623,
                    0.0024413263975489154,
                    -0.016232875361063027
                  ],
                  "sum": [
                    0.30701539268534267,
                    -0.07645567645173436,
                    0.3150074063369539,
                    0.08376299014515196
                  ],
                  "tanh": [
                    0.29771945899886376,
                    -0.0763070508239746,
                    0.3049856418279879,
                    0.08356763800909806
                  ]
                }
              },
              "h_t": [
                0.30522064243939845,
                -0.0891121719998971,
                0.3120940889537537,
                0.07969887161864059
              ]
            }
          },
          {
            "t": 7,
            "input": "lugar",
            "layer1": {
              "h_prev": [
                -0.13629766401487411,
                -0.14530382716053886,
                0.3894622496839302
              ],
              "x_t": [
                0.5,
                0.4,
                0.2,
                -0.3
              ],
              "gates": {
                "reset": {
                  "W_ih_x": [
                    0.13100000000000003,
                    -0.5050000000000001,
                    -0.10299999999999998
                  ],
                  "W_hh_h": [
                    -0.12746803914720986,
                    0.08046526291054609,
                    0.08289548764998667
                  ],
                  "sum": [
                    0.0035319608527901725,
                    -0.424534737089454,
                    -0.020104512350013315
                  ],
                  "sigmoid": [
                    0.5008829892952754,
                    0.39543213821213496,
                    0.494974041198807
                  ]
                },
                "update": {
                  "W_ih_x": [
                    -0.278,
                    -6.938893903907228e-18,
                    -0.118
                  ],
                  "W_hh_h": [
                    -0.008893450170128242,
                    0.1554842686102978,
                    0.06339331416189721
                  ],
                  "sum": [
                    -0.18689345017012823,
                    0.2554842686102978,
                    0.04539331416189722
                  ],
                  "sigmoid": [
                    0.45341216474885915,
                    0.5635259027913884,
                    0.5113463802892471
                  ]
                },
                "candidate": {
                  "W_ih_x": [
                    -0.16699999999999998,
                    0.019000000000000017,
                    0.318
                  ],
                  "W_hh_rh": [
                    -0.10999641391004046,
                    0.013565236179270503,
                    0.08434022685200841
                  ],
                  "sum": [
                    -0.27699641391004043,
                    0.03256523617927052,
                    0.40234022685200843
                  ],
                  "tanh": [
                    -0.2701229209512092,
                    0.03255372930798345,
                    0.3819495685931553
                  ]
                }
              },
              "h_t": [
                -0.20944492150563326,
                -0.06767361076921093,
                0.3857911508751905
              ]
            },
            "layer2": {
              "h_prev": [
                0.30522064243939845,
                -0.0891121719998971,
                0.3120940889537537,
                0.07969887161864059
              ],
              "x_t": [
                -0.20944492150563326,
                -0.06767361076921093,
                0.3857911508751905
              ],
              "gates": {
                "reset": {
                  "W_ih_x": [
                    0.059642129415022685,
                    -0.11079210636506723,
                    -0.23663723170800438,
                    0.1619885977754028
                  ],
                  "W_hh_h": [
                    -0.09921783895563435,
                    -0.12416174354765283,
                    -0.15209102464320567,
                    -0.031671251022140114
                  ],
                  "sum": [
                    -0.03957570954061167,
                    -0.23495384991272006,
                    -0.38872825635121006,
                    0.1303173467532627
                  ],
                  "sigmoid": [
                    0.49010736376537484,
                    0.4415302672792013,
                    0.40402348454626646,
                    0.5325333080056885
                  ]
                },
                "update": {
                  "W_ih_x": [
                    -0.03843110326366639,
                    -0.04815756968132507,
                    -0.10399080727440085,
                    0.015664488933671894
                  ],
                  "W_hh_h": [
                    -0.1186802047796799,
                    -0.04439862692627525,
                    -0.03498323150326431,
                    0.020531378458214497
                  ],
                  "sum": [
                    -1.6571113080433464,
                    -1.5925561966076003,
                    -1.6389740387776652,
                    -1.4638041326081137
                  ],
                  "sigmoid": [
                    0.16015015069129793,
                    0.16902456186098264,
                    0.16260471364315066,
                    0.18788618247037042
                  ]
                },
                "candidate": {
                  "W_ih_x": [
                    0.3716983570531266,
                    -0.1219759122895811,
                    0.3984423954456947,
                    0.21150048778646324
                  ],
                  "W_hh_rh": [
                    -0.005790788278785338,
                    -0.002213170836716246,
                    0.0036173976317928607,
                    -0.014909361176809131
                  ],
                  "sum": [
                    0.3659075687743413,
                    -0.12418908312629735,
                    0.40205979307748757,
                    0.1965911266096541
                  ],
                  "tanh": [
                    0.3504069311379569,
                    -0.12355454430666464,
                    0.3817100203803582,
                    0.19409705336353783
                  ]
                }
              },
              "h_t": [
                0.3431703401937023,
                -0.1177329374180604,
                0.370390141785734,
                0.17260321571393747
              ]
            }
          }
        ]
      },
      "head": {
        "input": [
          0.3431703401937023,
          -0.1177329374180604,
          0.370390141785734,
          0.17260321571393747
        ],
        "dense1": {
          "W": [
            [
              0.04,
              -0.22,
              -0.08,
              0.34
            ],
            [
              -0.5,
              -0.38,
              0.17,
              0.33
            ],
            [
              -0.36,
              0.08,
              0.39,
              -0.29
            ],
            [
              -0.31,
              -0.39,
              -0.28,
              0.48
            ],
            [
              0.31,
              -0.33,
              0.32,
              -0.23
            ],
            [
              -0.07,
              0.44,
              0.32,
              -0.16
            ],
            [
              -0.32,
              -0.13,
              -0.49,
              -0.25
            ],
            [
              0.3,
              -0.48,
              0.1,
              0.1
            ]
          ],
          "b": [
            0.0,
            0.0,
            0.0,
            0.0,
            0.0,
            0.0,
            0.0,
            0.0
          ],
          "z": [
            0.06868194183960141,
            -0.0069212685888140335,
            -0.03856273472378324,
            -0.08132665602431968,
            0.2240607805652369,
            0.01508391457969914,
            -0.3191512004011309,
            0.21376224776874683
          ],
          "relu": [
            0.06868194183960141,
            0.0,
            0.0,
            0.0,
            0.2240607805652369,
            0.01508391457969914,
            0.0,
            0.21376224776874683
          ]
        },
        "dense2": {
          "W": [
            [
              -0.39,
              -0.12,
              -0.46,
              0.39,
              0.48,
              -0.44,
              0.39,
              0.08
            ],
            [
              0.24,
              0.13,
              0.08,
              -0.48,
              -0.29,
              0.04,
              0.27,
              -0.25
            ],
            [
              -0.21,
              0.35,
              0.48,
              0.38,
              -0.14,
              0.1,
              -0.15,
              -0.16
            ]
          ],
          "b": [
            0.0,
            0.0,
            2.0
          ],
          "logits": [
            0.09122727476030128,
            -0.10133116568141311,
            1.921514714749521
          ]
        },
        "softmax": [
          0.12406139957401505,
          0.10233156314049156,
          0.7736070372854934
        ],
        "prediccion": "positivo",
        "weights": {
          "W_d1": [
            [
              0.04,
              -0.22,
              -0.08,
              0.34
            ],
            [
              -0.5,
              -0.38,
              0.17,
              0.33
            ],
            [
              -0.36,
              0.08,
              0.39,
              -0.29
            ],
            [
              -0.31,
              -0.39,
              -0.28,
              0.48
            ],
            [
              0.31,
              -0.33,
              0.32,
              -0.23
            ],
            [
              -0.07,
              0.44,
              0.32,
              -0.16
            ],
            [
              -0.32,
              -0.13,
              -0.49,
              -0.25
            ],
            [
              0.3,
              -0.48,
              0.1,
              0.1
            ]
          ],
          "b_d1": [
            0.0,
            0.0,
            0.0,
            0.0,
            0.0,
            0.0,
            0.0,
            0.0
          ],
          "W_d2": [
            [
              -0.39,
              -0.12,
              -0.46,
              0.39,
              0.48,
              -0.44,
              0.39,
              0.08
            ],
            [
              0.24,
              0.13,
              0.08,
              -0.48,
              -0.29,
              0.04,
              0.27,
              -0.25
            ],
            [
              -0.21,
              0.35,
              0.48,
              0.38,
              -0.14,
              0.1,
              -0.15,
              -0.16
            ]
          ],
          "b_d2": [
            0.0,
            0.0,
            2.0
          ]
        }
      }
    },
    "LSTM_sentiment": {
      "encoder": {
        "weights": {
          "layer1": {
            "W_ih_f": [
              [
                0.02,
                0.2,
                -0.23,
                0.17
              ],
              [
                0.41,
                0.19,
                -0.29,
                -0.18
              ],
              [
                -0.23,
                -0.38,
                0.5,
                -0.42
              ]
            ],
            "W_hh_f": [
              [
                -0.22,
                0.04,
                0.35
              ],
              [
                -0.3,
                0.31,
                -0.13
              ],
              [
                0.31,
                -0.49,
                0.17
              ]
            ],
            "b_f": [
              1.0,
              1.0,
              1.0
            ],
            "W_ih_i": [
              [
                -0.21,
                -0.18,
                -0.08,
                -0.01
              ],
              [
                0.44,
                0.23,
                0.48,
                0.08
              ],
              [
                0.01,
                -0.05,
                0.37,
                0.12
              ]
            ],
            "W_hh_i": [
              [
                0.03,
                -0.43,
                -0.02
              ],
              [
                -0.27,
                0.03,
                -0.4
              ],
              [
                -0.35,
                0.45,
                0.47
              ]
            ],
            "b_i": [
              0.0,
              0.0,
              0.0
            ],
            "W_ih_g": [
              [
                -0.42,
                0.32,
                -0.41,
                0.21
              ],
              [
                0.1,
                -0.33,
                0.21,
                -0.24
              ],
              [
                0.38,
                -0.07,
                0.41,
                -0.47
              ]
            ],
            "W_hh_g": [
              [
                0.24,
                0.19,
                0.45
              ],
              [
                0.12,
                0.47,
                -0.23
              ],
              [
                0.33,
                0.47,
                0.15
              ]
            ],
            "b_g": [
              0.0,
              0.0,
              0.0
            ],
            "W_ih_o": [
              [
                0.08,
                0.42,
                0.42,
                -0.49
              ],
              [
                0.09,
                -0.48,
                -0.29,
                0.22
              ],
              [
                -0.36,
                0.2,
                -0.11,
                0.09
              ]
            ],
            "W_hh_o": [
              [
                0.4,
                -0.05,
                0.4
              ],
              [
                0.06,
                0.35,
                -0.03
              ],
              [
                -0.3,
                -0.2,
                0.1
              ]
            ],
            "b_o": [
              0.0,
              0.0,
              0.0
            ]
          },
          "layer2": {
            "W_ih_f": [
              [
                0.37,
                0.47,
                -0.27
              ],
              [
                0.28,
                -0.22,
                0.25
              ],
              [
                -0.13,
                -0.49,
                0.32
              ],
              [
                -0.37,
                -0.09,
                -0.34
              ]
            ],
            "W_hh_f": [
              [
                0.26,
                0.17,
                0.31,
                0.16
              ],
              [
                -0.17,
                0.17,
                0.26,
                -0.37
              ],
              [
                -0.41,
                -0.28,
                0.33,
                -0.32
              ],
              [
                -0.41,
                -0.32,
                -0.15,
                -0.1
              ]
            ],
            "b_f": [
              1.0,
              1.0,
              1.0,
              1.0
            ],
            "W_ih_i": [
              [
                -0.04,
                0.16,
                0.38
              ],
              [
                -0.49,
                0.25,
                0.22
              ],
              [
                -0.28,
                0.25,
                -0.27
              ],
              [
                -0.37,
                -0.36,
                -0.39
              ]
            ],
            "W_hh_i": [
              [
                -0.11,
                0.15,
                -0.3,
                -0.19
              ],
              [
                -0.21,
                -0.12,
                0.44,
                -0.38
              ],
              [
                0.48,
                0.04,
                -0.42,
                -0.02
              ],
              [
                0.07,
                0.11,
                0.12,
                -0.07
              ]
            ],
            "b_i": [
              0.0,
              0.0,
              0.0,
              0.0
            ],
            "W_ih_g": [
              [
                0.11,
                0.1,
                0.36
              ],
              [
                0.33,
                0.24,
                -0.41
              ],
              [
                0.03,
                -0.01,
                0.2
              ],
              [
                -0.27,
                -0.05,
                -0.07
              ]
            ],
            "W_hh_g": [
              [
                0.48,
                -0.15,
                0.28,
                -0.26
              ],
              [
                0.2,
                -0.34,
                0.45,
                0.23
              ],
              [
                -0.33,
                0.08,
                -0.32,
                -0.24
              ],
              [
                -0.38,
                0.49,
                0.13,
                -0.39
              ]
            ],
            "b_g": [
              0.0,
              0.0,
              0.0,
              0.0
            ],
            "W_ih_o": [
              [
                0.15,
                -0.06,
                -0.31
              ],
              [
                -0.34,
                -0.5,
                -0.46
              ],
              [
                -0.01,
                -0.34,
                0.07
              ],
              [
                -0.39,
                0.17,
                -0.32
              ]
            ],
            "W_hh_o": [
              [
                -0.03,
                0.45,
                0.1,
                -0.04
              ],
              [
                0.09,
                -0.37,
                0.15,
                -0.09
              ],
              [
                0.06,
                0.01,
                -0.09,
                0.34
              ],
              [
                0.45,
                0.34,
                0.33,
                0.26
              ]
            ],
            "b_o": [
              0.0,
              0.0,
              0.0,
              0.0
            ]
          }
        },
        "timesteps": [
          {
            "t": 1,
            "input": "Me",
            "layer1": {
              "h_prev": [
                0.0,
                0.0,
                0.0
              ],
              "c_prev": [
                0.0,
                0.0,
                0.0
              ],
              "x_t": [
                0.3,
                -0.2,
                0.5,
                0.1
              ],
              "gates": {
                "forget": {
                  "W_ih_x": [
                    -0.132,
                    -0.078,
                    0.215
                  ],
                  "W_hh_h": [
                    0.0,
                    0.0,
                    0.0
                  ],
                  "sum": [
                    0.868,
                    0.922,
                    1.215
                  ],
                  "sigmoid": [
                    0.7043293692555267,
                    0.7154494441609213,
                    0.7711824455558168
                  ]
                },
                "input": {
                  "W_ih_x": [
                    -0.068,
                    0.33399999999999996,
                    0.21000000000000002
                  ],
                  "W_hh_h": [
                    0.0,
                    0.0,
                    0.0
                  ],
                  "sum": [
                    -0.068,
                    0.33399999999999996,
                    0.21000000000000002
                  ],
                  "sigmoid": [
                    0.48300654763905504,
                    0.5827323189732048,
                    0.5523079095743253
                  ]
                },
                "candidate": {
                  "W_ih_x": [
                    -0.374,
                    0.177,
                    0.286
                  ],
                  "W_hh_h": [
                    0.0,
                    0.0,
                    0.0
                  ],
                  "sum": [
                    -0.374,
                    0.177,
                    0.286
                  ],
                  "tanh": [
                    -0.3574855062173728,
                    0.1751744624976025,
                    0.2784490730351264
                  ]
                },
                "output": {
                  "W_ih_x": [
                    0.10099999999999998,
                    1.3877787807814457e-17,
                    -0.194
                  ],
                  "W_hh_h": [
                    0.0,
                    0.0,
                    0.0
                  ],
                  "sum": [
                    0.10099999999999998,
                    1.3877787807814457e-17,
                    -0.194
                  ],
                  "sigmoid": [
                    0.5252285572692973,
                    0.5,
                    0.451651541849306
                  ]
                },
                "c_t": [
                  -0.17266784018905318,
                  0.10207982075611259,
                  0.1537896254509393
                ]
              },
              "h_t": [
                -0.08979941728870242,
                0.05086336266031523,
                0.06891685300056342
              ],
              "c_t": [
                -0.17266784018905318,
                0.10207982075611259,
                0.1537896254509393
              ]
            },
            "layer2": {
              "h_prev": [
                0.0,
                0.0,
                0.0,
                0.0
              ],
              "c_prev": [
                0.0,
                0.0,
                0.0,
                0.0
              ],
              "x_t": [
                -0.08979941728870242,
                0.05086336266031523,
                0.06891685300056342
              ],
              "gates": {
                "forget": {
                  "W_ih_x": [
                    -0.02792755425662386,
                    -0.01910456337596517,
                    0.00880426950415715,
                    0.005216351737199955
                  ],
                  "W_hh_h": [
                    0.0,
                    0.0,
                    0.0,
                    0.0
                  ],
                  "sum": [
                    0.9720724457433761,
                    0.9808954366240348,
                    1.0088042695041572,
                    1.0052163517372
                  ],
                  "sigmoid": [
                    0.7255323874060231,
                    0.7272858544033289,
                    0.7327860776643272,
                    0.7320829386632127
                  ]
                },
                "input": {
                  "W_ih_x": [
                    0.03791851885741264,
                    0.07187926279666694,
                    0.019252127195763358,
                    -0.011962598831113325
                  ],
                  "W_hh_h": [
                    0.0,
                    0.0,
                    0.0,
                    0.0
                  ],
                  "sum": [
                    0.03791851885741264,
                    0.07187926279666694,
                    0.019252127195763358,
                    -0.011962598831113325
                  ],
                  "sigmoid": [
                    0.5094784940488901,
                    0.5179620827477627,
                    0.5048128831441764,
                    0.4970093859561488
                  ]
                },
                "candidate": {
                  "W_ih_x": [
                    0.020018467444477092,
                    -0.04568251039702714,
                    0.01058075445484846,
                    0.016878494824894452
                  ],
                  "W_hh_h": [
                    0.0,
                    0.0,
                    0.0,
                    0.0
                  ],
                  "sum": [
                    0.020018467444477092,
                    -0.04568251039702714,
                    0.01058075445484846,
                    0.016878494824894452
                  ],
                  "tanh": [
                    0.020015793812580257,
                    -0.04565075875021413,
                    0.010580359625701625,
                    0.01687689220546545
                  ]
                },
                "output": {
                  "W_ih_x": [
                    -0.03788593878309894,
                    -0.026601631832257968,
                    -0.011571369421580715,
                    0.021615151434667235
                  ],
                  "W_hh_h": [
                    0.0,
                    0.0,
                    0.0,
                    0.0
                  ],
                  "sum": [
                    -0.03788593878309894,
                    -0.026601631832257968,
                    -0.011571369421580715,
                    0.021615151434667235
                  ],
                  "sigmoid": [
                    0.4905296480451477,
                    0.4933499841925199,
                    0.4971071899226499,
                    0.5054035774743704
                  ]
                },
                "c_t": [
                  0.010197616488826482,
                  -0.02364536208127656,
                  0.005341101847352676,
                  0.008387973831886497
                ]
              },
              "h_t": [
                0.005002059837993623,
                -0.011663265433899912,
                0.0026550748830425916,
                0.004239212561875652
              ],
              "c_t": [
                0.010197616488826482,
                -0.02364536208127656,
                0.005341101847352676,
                0.008387973831886497
              ]
            }
          },
          {
            "t": 2,
            "input": "encantó",
            "layer1": {
              "h_prev": [
                -0.08979941728870242,
                0.05086336266031523,
                0.06891685300056342
              ],
              "c_prev": [
                -0.17266784018905318,
                0.10207982075611259,
                0.1537896254509393
              ],
              "x_t": [
                0.8,
                0.6,
                -0.1,
                0.4
              ],
              "gates": {
                "forget": {
                  "W_ih_x": [
                    0.22700000000000004,
                    0.399,
                    -0.6300000000000001
                  ],
                  "W_hh_h": [
                    0.04591130486012433,
                    0.033748276721235204,
                    -0.04104500205295642
                  ],
                  "sum": [
                    1.2729113048601244,
                    1.4327482767212352,
                    0.3289549979470434
                  ],
                  "sigmoid": [
                    0.7812407079470371,
                    0.8073291679704102,
                    0.5815050900420312
                  ]
                },
                "input": {
                  "W_ih_x": [
                    -0.272,
                    0.47400000000000003,
                    -0.010999999999999996
                  ],
                  "W_hh_h": [
                    -0.02594356552260789,
                    -0.0017949976524662577,
                    0.0867092301584525
                  ],
                  "sum": [
                    -0.2979435655226079,
                    0.47220500234753376,
                    0.0757092301584525
                  ],
                  "sigmoid": [
                    0.42606027248168005,
                    0.6159055179163024,
                    0.5189182719521678
                  ]
                },
                "candidate": {
                  "W_ih_x": [
                    -0.019000000000000017,
                    -0.235,
                    0.03300000000000006
                  ],
                  "W_hh_h": [
                    0.019124762606424855,
                    -0.0027210258144257232,
                    0.004609500695160872
                  ],
                  "sum": [
                    0.0001247626064248379,
                    -0.23772102581442572,
                    0.03760950069516093
                  ],
                  "tanh": [
                    0.0001247626057774985,
                    -0.2333420111100971,
                    0.037591778161891944
                  ]
                },
                "output": {
                  "W_ih_x": [
                    0.07799999999999999,
                    -0.09899999999999996,
                    -0.12099999999999998
                  ],
                  "W_hh_h": [
                    -0.010896193848271361,
                    0.01034670630377128,
                    0.02365883795460402
                  ],
                  "sum": [
                    0.06710380615172862,
                    -0.08865329369622868,
                    -0.09734116204539596
                  ],
                  "sigmoid": [
                    0.5167696593061657,
                    0.4778511810570389,
                    0.4756839066508552
                  ]
                },
                "c_t": [
                  -0.1348419893191687,
                  -0.06130461544679497,
                  0.10893651055875692
                ]
              },
              "h_t": [
                -0.06926296872494772,
                -0.029257839260159523,
                0.05161533041751975
              ],
              "c_t": [
                -0.1348419893191687,
                -0.06130461544679497,
                0.10893651055875692
              ]
            },
            "layer2": {
              "h_prev": [
                0.005002059837993623,
                -0.011663265433899912,
                0.0026550748830425916,
                0.004239212561875652
              ],
              "c_prev": [
                0.010197616488826482,
                -0.02364536208127656,
                0.005341101847352676,
                0.008387973831886497
              ],
              "x_t": [
                -0.06926296872494772,
                -0.029257839260159523,
                0.05161533041751975
              ],
              "gates": {
                "forget": {
                  "W_ih_x": [
                    -0.05331462209323597,
                    -5.3074001370329374e-05,
                    0.039857432905327686,
                    0.010711291619688298
                  ],
                  "W_hh_h": [
                    0.0008191276577586646,
                    -0.0037112944745248183,
                    0.0007344964795184368,
                    0.0008592179166266322
                  ],
                  "sum": [
                    0.9475045055645227,
                    0.9962356315241049,
                    1.040591929384846,
                    1.011570509536315
                  ],
                  "sigmoid": [
                    0.7206130371165724,
                    0.730317815433126,
                    0.7389642031095901,
                    0.7333273879833574
                  ]
                },
                "input": {
                  "W_ih_x": [
                    0.017703090026029888,
                    0.03797976755203884,
                    -0.0018569677847848527,
                    0.016030141699055377
                  ],
                  "W_hh_h": [
                    -0.003901689248933436,
                    -9.350853888467903e-05,
                    0.0007345424027655409,
                    -0.0009109509024356212
                  ],
                  "sum": [
                    0.013801400777096452,
                    0.037886259013154164,
                    -0.0011224253820193118,
                    0.015119190796619756
                  ],
                  "sigmoid": [
                    0.5034502954271428,
                    0.5094704319836451,
                    0.49971939368395507,
                    0.5037797256988263
                  ]
                },
                "candidate": {
                  "W_ih_x": [
                    0.008036808464546907,
                    -0.05104094657285413,
                    0.008537755414357114,
                    0.01655082038951748
                  ],
                  "W_hh_h": [
                    0.003791704238486182,
                    0.007135724801725262,
                    -0.004450775958673674,
                    -0.0089239159653845
                  ],
                  "sum": [
                    0.01182851270303309,
                    -0.04390522177112886,
                    0.00408697945568344,
                    0.007626904424132981
                  ],
                  "tanh": [
                    0.011827961076862169,
                    -0.043877031936212126,
                    0.004086956700349803,
                    0.007626756542733257
                  ]
                },
                "output": {
                  "W_ih_x": [
                    -0.02463472738256371,
                    0.014435277004502905,
                    0.0142533681649301,
                    0.005521819394896172
                  ],
                  "W_hh_h": [
                    -0.005302592254565536,
                    0.004782325697849974,
                    0.0013858664675045068,
                    0.0002637866570628848
                  ],
                  "sum": [
                    -0.029937319637129246,
                    0.019217602702352878,
                    0.015639234632434607,
                    0.005785606051959057
                  ],
                  "sigmoid": [
                    0.49251622902221487,
                    0.5048042528191106,
                    0.5039097289697968,
                    0.5014463974783582
                  ]
                },
                "c_t": [
                  0.013303325887810295,
                  -0.039622679595025356,
                  0.005989214594667511,
                  0.009993336259679967
                ]
              },
              "h_t": [
                0.006551717399949817,
                -0.019991236470330388,
                0.00301798741746199,
                0.005010955657998884
              ],
              "c_t": [
                0.013303325887810295,
                -0.039622679595025356,
                0.005989214594667511,
                0.009993336259679967
              ]
            }
          },
          {
            "t": 3,
            "input": "la",
            "layer1": {
              "h_prev": [
                -0.06926296872494772,
                -0.029257839260159523,
                0.05161533041751975
              ],
              "c_prev": [
                -0.1348419893191687,
                -0.06130461544679497,
                0.10893651055875692
              ],
              "x_t": [
                -0.1,
                0.2,
                0.3,
                -0.2
              ],
              "gates": {
                "forget": {
                  "W_ih_x": [
                    -0.065,
                    -0.05399999999999999,
                    0.181
                  ],
                  "W_hh_h": [
                    0.03213290519521403,
                    0.004998967492557296,
                    0.001639427103722729
                  ],
                  "sum": [
                    0.967132905195214,
                    0.9509989674925573,
                    1.1826394271037226
                  ],
                  "sigmoid": [
                    0.7245476562821763,
                    0.7213160340721552,
                    0.7654220478621122
                  ]
                },
                "input": {
                  "W_ih_x": [
                    -0.03699999999999999,
                    0.13,
                    0.07599999999999998
                  ],
                  "W_hh_h": [
                    0.009470675211769768,
                    -0.0028228657890768012,
                    0.035335216682894195
                  ],
                  "sum": [
                    -0.027529324788230225,
                    0.1271771342109232,
                    0.11133521668289417
                  ],
                  "sigmoid": [
                    0.49311810342576606,
                    0.5317514992934043,
                    0.5278050885341032
                  ]
                },
                "candidate": {
                  "W_ih_x": [
                    -0.05899999999999997,
                    0.03499999999999999,
                    0.16499999999999998
                  ],
                  "W_hh_h": [
                    0.001044796734466124,
                    -0.03393426669529825,
                    -0.028865664568879765
                  ],
                  "sum": [
                    -0.05795520326553384,
                    0.0010657333047017423,
                    0.13613433543112022
                  ],
                  "tanh": [
                    -0.057890403570492674,
                    0.001065732901219745,
                    0.13529955070720595
                  ]
                },
                "output": {
                  "W_ih_x": [
                    0.30000000000000004,
                    -0.236,
                    0.02500000000000001
                  ],
                  "W_hh_h": [
                    -0.005596163359963213,
                    -0.015944481777078287,
                    0.03179199151126819
                  ],
                  "sum": [
                    0.29440383664003683,
                    -0.2519444817770783,
                    0.0567919915112682
                  ],
                  "sigmoid": [
                    0.573073921589947,
                    0.43734495388301464,
                    0.5141941830055053
                  ]
                },
                "c_t": [
                  -0.12624625334486347,
                  -0.04365329701633082,
                  0.15479419833847757
                ]
              },
              "h_t": [
                -0.07196650428060364,
                -0.019079431389234812,
                0.07896458498150327
              ],
              "c_t": [
                -0.12624625334486347,
                -0.04365329701633082,
                0.15479419833847757
              ]
            },
            "layer2": {
              "h_prev": [
                0.006551717399949817,
                -0.019991236470330388,
                0.00301798741746199,
                0.005010955657998884
              ],
              "c_prev": [
                0.013303325887810295,
                -0.039622679595025356,
                0.005989214594667511,
                0.009993336259679967
              ],
              "x_t": [
                -0.07196650428060364,
                -0.019079431389234812,
                0.07896458498150327
              ],
              "gates": {
                "forget": {
                  "W_ih_x": [
                    -0.05691537728176959,
                    0.003787999952438458,
                    0.04397323413128458,
                    0.0014967965151433636
                  ],
                  "W_hh_h": [
                    4.226532872382452e-05,
                    -0.005581679022867105,
                    0.0023037721149158983,
                    0.002757197858107113
                  ],
                  "sum": [
                    0.9431268880469542,
                    0.9982063209295714,
                    1.0462770062462006,
                    1.0042539943732505
                  ],
                  "sigmoid": [
                    0.7197308412925295,
                    0.7307057737967659,
                    0.7400593415911949,
                    0.7318941421340046
                  ]
                },
                "input": {
                  "W_ih_x": [
                    0.02983249344191782,
                    0.04786593794611779,
                    -0.005939674593745567,
                    0.0027000137411615985
                  ],
                  "W_hh_h": [
                    -0.0055768521848024236,
                    0.00044683903609388513,
                    0.0009774010646686829,
                    -0.0017290241997043388
                  ],
                  "sum": [
                    0.024255641257115396,
                    0.048312776982211675,
                    -0.004962273529076884,
                    0.0009709895414572597
                  ],
                  "sigmoid": [
                    0.5060636130303071,
                    0.512075845459776,
                    0.4987594341633873,
                    0.500242747366292
                  ]
                },
                "candidate": {
                  "W_ih_x": [
                    0.018602991983551295,
                    -0.06070348978843189,
                    0.013824716181774893,
                    0.014857406776519495
                  ],
                  "W_hh_h": [
                    0.0056856978283351175,
                    0.010617978019099935,
                    -0.00592975099111744,
                    -0.013847292824792327
                  ],
                  "sum": [
                    0.024288689811886414,
                    -0.05008551176933195,
                    0.007894965190657452,
                    0.0010101139517271675
                  ],
                  "tanh": [
                    0.024283914645153854,
                    -0.050043672938980176,
                    0.007894801162435934,
                    0.0010101136081773858
                  ]
                },
                "output": {
                  "W_ih_x": [
                    -0.03412923110300247,
                    -0.0023153819414688595,
                    0.012734192663851101,
                    -0.0004452338608155436
                  ],
                  "W_hh_h": [
                    -0.009091247418220927,
                    0.007988124163417126,
                    0.0016252967354417264,
                    -0.0015499632510927483
                  ],
                  "sum": [
                    -0.0432204785212234,
                    0.005672742221948267,
                    0.014359489399292828,
                    -0.001995197111908292
                  ],
                  "sigmoid": [
                    0.48919656206130036,
                    0.5014181817523978,
                    0.5035898106666369,
                    0.4995012008874916
                  ]
                },
                "c_t": [
                  0.02186401951706854,
                  -0.05457867688352512,
                  0.008369980770187012,
                  0.007819366275341846
                ]
              },
              "h_t": [
                0.010694099182415238,
                -0.027339599623749933,
                0.004214938603743084,
                0.003905703243564404
              ],
              "c_t": [
                0.02186401951706854,
                -0.05457867688352512,
                0.008369980770187012,
                0.007819366275341846
              ]
            }
          },
          {
            "t": 4,
            "input": "pizza",
            "layer1": {
              "h_prev": [
                -0.07196650428060364,
                -0.019079431389234812,
                0.07896458498150327
              ],
              "c_prev": [
                -0.12624625334486347,
                -0.04365329701633082,
                0.15479419833847757
              ],
              "x_t": [
                0.6,
                0.1,
                0.7,
                0.5
              ],
              "gates": {
                "forget": {
                  "W_ih_x": [
                    -0.044,
                    -0.028000000000000025,
                    -0.03600000000000003
                  ],
                  "W_hh_h": [
                    0.042707058429689554,
                    0.0054099315059228745,
                    0.00046328450059348464
                  ],
                  "sum": [
                    0.9987070584296895,
                    0.9774099315059228,
                    0.9644632845005935
                  ],
                  "sigmoid": [
                    0.7308042949576846,
                    0.7265939879430491,
                    0.7240145385240753
                  ]
                },
                "input": {
                  "W_ih_x": [
                    -0.205,
                    0.663,
                    0.32
                  ],
                  "W_hh_h": [
                    0.004465868669322794,
                    -0.012727260778515367,
                    0.05371588731436214
                  ],
                  "sum": [
                    -0.20053413133067718,
                    0.6502727392214847,
                    0.3737158873143621
                  ],
                  "sigmoid": [
                    0.4500337998532797,
                    0.6570719212015311,
                    0.5923565617348988
                  ]
                },
                "candidate": {
                  "W_ih_x": [
                    -0.402,
                    0.05399999999999999,
                    0.27299999999999996
                  ],
                  "W_hh_h": [
                    0.014637010250376989,
                    -0.03576516781235855,
                    -0.020871591418314073
                  ],
                  "sum": [
                    -0.387362989749623,
                    0.018234832187641443,
                    0.2521284085816859
                  ],
                  "tanh": [
                    -0.3690846603954979,
                    0.018232811373840304,
                    0.24691835264271603
                  ]
                },
                "output": {
                  "W_ih_x": [
                    0.13899999999999998,
                    -0.087,
                    -0.228
                  ],
                  "W_hh_h": [
                    0.0037532038498215917,
                    -0.0133647287925135,
                    0.03330229606017838
                  ],
                  "sum": [
                    0.14275320384982157,
                    -0.1003647287925135,
                    -0.19469770393982164
                  ],
                  "sigmoid": [
                    0.5356278181119878,
                    0.47492985872869314,
                    0.4514787526342176
                  ]
                },
                "c_t": [
                  -0.2583618763520854,
                  -0.01973795476764384,
                  0.25833695647692156
                ]
              },
              "h_t": [
                -0.1353867351526188,
                -0.00937292691128617,
                0.11410645784183689
              ],
              "c_t": [
                -0.2583618763520854,
                -0.01973795476764384,
                0.25833695647692156
              ]
            },
            "layer2": {
              "h_prev": [
                0.010694099182415238,
                -0.027339599623749933,
                0.004214938603743084,
                0.003905703243564404
              ],
              "c_prev": [
                0.02186401951706854,
                -0.05457867688352512,
                0.008369980770187012,
                0.007819366275341846
              ],
              "x_t": [
                -0.1353867351526188,
                -0.00937292691128617,
                0.11410645784183689
              ],
              "gates": {
                "forget": {
                  "W_ih_x": [
                    -0.08530711127206941,
                    -0.007319627461791083,
                    0.058707076265758475,
                    0.012140459762260157
                  ],
                  "W_hh_h": [
                    6.427733752113318e-05,
                    -0.006814954960193707,
                    0.003411611931154344,
                    0.003341280099891829
                  ],
                  "sum": [
                    0.9147571660654518,
                    0.9858654175780152,
                    1.062118688196913,
                    1.015481739862152
                  ],
                  "sigmoid": [
                    0.7139726388498119,
                    0.7282704918139905,
                    0.7430952211398967,
                    0.7340915632957945
                  ]
                },
                "input": {
                  "W_ih_x": [
                    0.047276255080196984,
                    0.08909968922216578,
                    0.004756310497615764,
                    0.008965827136215583
                  ],
                  "W_hh_h": [
                    -0.007283856051028327,
                    0.0014053968796352752,
                    0.0021911953441659327,
                    -0.002026375610443764
                  ],
                  "sum": [
                    0.03999239902916866,
                    0.09050508610180105,
                    0.006947505841781697,
                    0.0069394515257718194
                  ],
                  "sigmoid": [
                    0.5099967673970077,
                    0.5226108395284107,
                    0.5017368694742066,
                    0.5017348559194735
                  ]
                },
                "candidate": {
                  "W_ih_x": [
                    0.025248491265144595,
                    -0.09371077277422601,
                    0.018853418782901678,
                    0.0290356127878428
                  ],
                  "W_hh_h": [
                    0.00939880751684312,
                    0.014229317826262227,
                    -0.008002369831750266,
                    -0.018435443751458773
                  ],
                  "sum": [
                    0.03464729878198772,
                    -0.07948145494796378,
                    0.010851048951151411,
                    0.010600169036384027
                  ],
                  "tanh": [
                    0.034633441488878584,
                    -0.07931450735562465,
                    0.010850623084670146,
                    0.010599772029901082
                  ]
                },
                "output": {
                  "W_ih_x": [
                    -0.05511863658918508,
                    -0.001771017199711497,
                    0.012528114550292069,
                    0.014693362625214867
                  ],
                  "W_hh_h": [
                    -0.012358377075528193,
                    0.011358848285845513,
                    0.0013168445831824348,
                    -0.0020767066574261584
                  ],
                  "sum": [
                    -0.06747701366471327,
                    0.009587831086134016,
                    0.013844959133474503,
                    0.01261665596778871
                  ],
                  "sigmoid": [
                    0.48313714435391164,
                    0.5023969394097064,
                    0.503461184496057,
                    0.5031541221526258
                  ]
                },
                "c_t": [
                  0.033273254913626704,
                  -0.08119866113242702,
                  0.011663850369705759,
                  0.011058405905249794
                ]
              },
              "h_t": [
                0.016069615525350876,
                -0.04070454010270515,
                0.005872029637780993,
                0.0055638557192835385
              ],
              "c_t": [
                0.033273254913626704,
                -0.08119866113242702,
                0.011663850369705759,
                0.011058405905249794
              ]
            }
          },
          {
            "t": 5,
            "input": "de",
            "layer1": {
              "h_prev": [
                -0.1353867351526188,
                -0.00937292691128617,
                0.11410645784183689
              ],
              "c_prev": [
                -0.2583618763520854,
                -0.01973795476764384,
                0.25833695647692156
              ],
              "x_t": [
                0.0,
                0.3,
                -0.4,
                0.2
              ],
              "gates": {
                "forget": {
                  "W_ih_x": [
                    0.186,
                    0.13699999999999998,
                    -0.398
                  ],
                  "W_hh_h": [
                    0.0693474249017676,
                    0.022876573683848125,
                    -0.01797905587766933
                  ],
                  "sum": [
                    1.2553474249017675,
                    1.1598765736838481,
                    0.5840209441223306
                  ],
                  "sigmoid": [
                    0.7782241532433435,
                    0.7613102869145569,
                    0.6419920997702453
                  ]
                },
                "input": {
                  "W_ih_x": [
                    -0.024,
                    -0.10699999999999998,
                    -0.139
                  ],
                  "W_hh_h": [
                    -0.002313372639562248,
                    -0.00936935245286627,
                    0.09679757537900113
                  ],
                  "sum": [
                    -0.02631337263956225,
                    -0.11636935245286625,
                    -0.04220242462099888
                  ],
                  "sigmoid": [
                    0.493422036380711,
                    0.470940447771607,
                    0.48945095949095085
                  ]
                },
                "candidate": {
                  "W_ih_x": [
                    0.30200000000000005,
                    -0.231,
                    -0.279
                  ],
                  "W_hh_h": [
                    0.01707423347905372,
                    -0.04689616917024124,
                    -0.03196692957239317
                  ],
                  "sum": [
                    0.3190742334790538,
                    -0.27789616917024124,
                    -0.3109669295723932
                  ],
                  "tanh": [
                    0.3086695983845551,
                    -0.27095682141604127,
                    -0.30131649354845097
                  ]
                },
                "output": {
                  "W_ih_x": [
                    -0.14,
                    0.016000000000000014,
                    0.122
                  ],
                  "W_hh_h": [
                    -0.008043464578748452,
                    -0.014826922263362392,
                    0.05390125171222655
                  ],
                  "sum": [
                    -0.14804346457874845,
                    0.0011730777366376222,
                    0.17590125171222654
                  ],
                  "sigmoid": [
                    0.46305658288584134,
                    0.5002932694005284,
                    0.5438622750712158
                  ]
                },
                "c_t": [
                  -0.04875907065073967,
                  -0.14263123481170328,
                  0.018370638259135097
                ]
              },
              "h_t": [
                -0.02256033280832,
                -0.0708774615064385,
                0.009989973336840666
              ],
              "c_t": [
                -0.04875907065073967,
