{
  "config": {
    "d": 4,
    "m": 3,
    "l": 4,
    "p": 5,
    "q": 3,
    "V": 12,
    "encoderTokens": [
      "Me",
      "encantó",
      "la",
      "pizza",
      "de",
      "este",
      "lugar"
    ],
    "vocab": [
      "<START>",
      "<END>",
      "I",
      "you",
      "loved",
      "hated",
      "this",
      "that",
      "place's",
      "food",
      "pizza",
      "the"
    ],
    "embeddings": {
      "Me": [
        0.3,
        -0.2,
        0.5,
        0.1
      ],
      "encantó": [
        0.8,
        0.6,
        -0.1,
        0.4
      ],
      "la": [
        -0.1,
        0.2,
        0.3,
        -0.2
      ],
      "pizza": [
        0.6,
        0.1,
        0.7,
        0.5
      ],
      "de": [
        0.0,
        0.3,
        -0.4,
        0.2
      ],
      "este": [
        0.2,
        -0.1,
        0.1,
        0.6
      ],
      "lugar": [
        0.5,
        0.4,
        0.2,
        -0.3
      ],
      "<START>": [
        0.0,
        0.0,
        0.0,
        0.0
      ],
      "<END>": [
        0.1,
        0.1,
        0.1,
        0.1
      ],
      "I": [
        0.4,
        -0.3,
        0.2,
        0.5
      ],
      "you": [
        0.35,
        -0.25,
        0.15,
        0.45
      ],
      "loved": [
        0.75,
        0.55,
        -0.15,
        0.35
      ],
      "hated": [
        -0.75,
        -0.55,
        0.15,
        -0.35
      ],
      "this": [
        0.15,
        -0.05,
        0.05,
        0.55
      ],
      "that": [
        0.1,
        -0.1,
        0.0,
        0.5
      ],
      "place's": [
        0.45,
        0.35,
        0.15,
        -0.25
      ],
      "food": [
        0.55,
        0.05,
        0.65,
        0.45
      ],
      "the": [
        -0.05,
        0.25,
        0.25,
        -0.15
      ]
    }
  },
  "scenarios": {
    "GRU_sentiment": {
      "encoder": {
        "weights": {
          "layer1": {
            "W_ih_r": [
              [
                -0.13,
                0.45,
                0.23,
                0.1
              ],
              [
                -0.34,
                -0.34,
                -0.44,
                0.37
              ],
              [
                0.1,
                0.21,
                -0.48,
                0.47
              ]
            ],
            "W_hh_r": [
              [
                0.33,
                -0.29,
                -0.32
              ],
              [
                -0.32,
                -0.2,
                0.02
              ],
              [
                -0.07,
                -0.21,
                0.11
              ]
            ],
            "b_r": [
              0.0,
              0.0,
              0.0
            ],
            "W_ih_z": [
              [
                -0.36,
                -0.21,
                -0.13,
                -0.04
              ],
              [
                0.29,
                -0.3,
                0.01,
                0.09
              ],
              [
                -0.45,
                0.11,
                -0.33,
                -0.43
              ]
            ],
            "W_hh_z": [
              [
                0.45,
                0.47,
                0.31
              ],
              [
                -0.2,
                -0.4,
                0.18
              ],
              [
                -0.06,
                -0.38,
                -0.0
              ]
            ],
            "b_z": [
              0.1,
              0.1,
              0.1
            ],
            "W_ih_n": [
              [
                -0.47,
                0.41,
                -0.24,
                0.16
              ],
              [
                -0.19,
                0.02,
                0.05,
                -0.32
              ],
              [
                0.47,
                0.28,
                0.44,
                0.39
              ]
            ],
            "W_hh_n": [
              [
                0.1,
                0.42,
                -0.41
              ],
              [
                -0.3,
                -0.45,
                -0.17
              ],
              [
                -0.11,
                -0.23,
                0.33
              ]
            ],
            "b_n": [
              0.0,
              0.0,
              0.0
            ]
          },
          "layer2": {
            "W_ih_r": [
              [
                -0.14,
                -0.22,
                0.04
              ],
              [
                -0.36,
                0.3,
                -0.43
              ],
              [
                0.49,
                0.27,
                -0.3
              ],
              [
                -0.49,
                0.32,
                0.21
              ]
            ],
            "W_hh_r": [
              [
                0.23,
                0.27,
                -0.43,
                -0.14
              ],
              [
                -0.38,
                0.36,
                0.12,
                -0.17
              ],
              [
                -0.44,
                -0.19,
                -0.17,
                0.23
              ],
              [
                0.14,
                0.39,
                -0.03,
                -0.38
              ]
            ],
            "b_r": [
              0.0,
              0.0,
              0.0,
              0.0
            ],
            "W_ih_z": [
              [
                0.21,
                0.26,
                0.06
              ],
              [
                0.27,
                -0.01,
                0.02
              ],
              [
                -0.07,
                -0.47,
                -0.39
              ],
              [
                -0.47,
                0.14,
                -0.19
              ]
            ],
            "W_hh_z": [
              [
                0.01,
                0.41,
                -0.25,
                -0.09
              ],
              [
                0.26,
                -0.27,
                -0.42,
                -0.21
              ],
              [
                -0.34,
                0.43,
                0.31,
                0.13
              ],
              [
                0.37,
                0.3,
                -0.31,
                0.39
              ]
            ],
            "b_z": [
              -1.5,
              -1.5,
              -1.5,
              -1.5
            ],
            "W_ih_n": [
              [
                0.12,
                0.92,
                1.19
              ],
              [
                -0.55,
                -1.17,
                -0.82
              ],
              [
                -0.22,
                0.95,
                1.08
              ],
              [
                -1.48,
                0.03,
                -0.25
              ]
            ],
            "W_hh_n": [
              [
                -0.06,
                -0.08,
                -0.03,
                0.09
              ],
              [
                -0.04,
                0.0,
                0.04,
                -0.03
              ],
              [
                0.09,
                0.09,
                -0.05,
                -0.0
              ],
              [
                -0.04,
                -0.04,
                -0.09,
                0.02
              ]
            ],
            "b_n": [
              0.0,
              0.0,
              0.0,
              0.0
            ]
          }
        },
        "timesteps": [
          {
            "t": 1,
            "input": "Me",
            "layer1": {
              "h_prev": [
                0.0,
                0.0,
                0.0
              ],
              "x_t": [
                0.3,
                -0.2,
                0.5,
                0.1
              ],
              "gates": {
                "reset": {
                  "W_ih_x": [
                    -0.0040000000000000036,
                    -0.217,
                    -0.205
                  ],
                  "W_hh_h": [
                    0.0,
                    0.0,
                    0.0
                  ],
                  "sum": [
                    -0.0040000000000000036,
                    -0.217,
                    -0.205
                  ],
                  "sigmoid": [
                    0.49900000133333117,
                    0.44596188383693597,
                    0.448928730692658
                  ]
                },
                "update": {
                  "W_ih_x": [
                    -0.13499999999999998,
                    0.16099999999999998,
                    -0.36500000000000005
                  ],
                  "W_hh_h": [
                    0.0,
                    0.0,
                    0.0
                  ],
                  "sum": [
                    -0.034999999999999976,
                    0.261,
                    -0.265
                  ],
                  "sigmoid": [
                    0.4912508931197597,
                    0.5648820980443233,
                    0.4341349971045183
                  ]
                },
                "candidate": {
                  "W_ih_x": [
                    -0.327,
                    -0.068,
                    0.344
                  ],
                  "W_hh_rh": [
                    0.0,
                    0.0,
                    0.0
                  ],
                  "sum": [
                    -0.327,
                    -0.068,
                    0.344
                  ],
                  "tanh": [
                    -0.31582257315146817,
                    -0.06789538282899303,
                    0.3310437384241189
                  ]
                }
              },
              "h_t": [
                -0.1606744520234288,
                -0.029542496529028923,
                0.1873260660018951
              ]
            },
            "layer2": {
              "h_prev": [
                0.0,
                0.0,
                0.0,
                0.0
              ],
              "x_t": [
                -0.1606744520234288,
                -0.029542496529028923,
                0.1873260660018951
              ],
              "gates": {
                "reset": {
                  "W_ih_x": [
                    0.036486815159742204,
                    -0.0315701546110892,
                    -0.14290477535488647,
                    0.10861535646258884
                  ],
                  "W_hh_h": [
                    0.0,
                    0.0,
                    0.0,
                    0.0
                  ],
                  "sum": [
                    0.036486815159742204,
                    -0.0315701546110892,
                    -0.14290477535488647,
                    0.10861535646258884
                  ],
                  "sigmoid": [
                    0.5091206919569827,
                    0.4921081168063411,
                    0.46433448161139573,
                    0.5271271754154662
                  ]
                },
                "update": {
                  "W_ih_x": [
                    -0.030183120062353866,
                    -0.03934015576099759,
                    -0.04792498073045548,
                    0.03578909039658741
                  ],
                  "W_hh_h": [
                    0.0,
                    0.0,
                    0.0,
                    0.0
                  ],
                  "sum": [
                    -1.530183120062354,
                    -1.5393401557609976,
                    -1.5479249807304556,
                    -1.4642109096034126
                  ],
                  "sigmoid": [
                    0.17796689471567356,
                    0.17663121718738137,
                    0.1753861674961037,
                    0.1878241222968778
                  ]
                },
                "candidate": {
                  "W_ih_x": [
                    0.1764579874927371,
                    -0.03067170456970429,
                    0.20959515902462358,
                    0.19008039759833
                  ],
                  "W_hh_rh": [
                    0.0,
                    0.0,
                    0.0,
                    0.0
                  ],
                  "sum": [
                    0.1764579874927371,
                    -0.03067170456970429,
                    0.20959515902462358,
                    0.19008039759833
                  ],
                  "tanh": [
                    0.1746490323997446,
                    -0.030662090016912547,
                    0.20657896772113796,
                    0.18782376838986795
                  ]
                }
              },
              "h_t": [
                0.143567286438465,
                -0.025246207735716227,
                0.17034787428722625,
                0.15254593394554894
              ]
            }
          },
          {
            "t": 2,
            "input": "encantó",
            "layer1": {
              "h_prev": [
                -0.1606744520234288,
                -0.029542496529028923,
                0.1873260660018951
              ],
              "x_t": [
                0.8,
                0.6,
                -0.1,
                0.4
              ],
              "gates": {
                "reset": {
                  "W_ih_x": [
                    0.18300000000000005,
                    -0.28400000000000003,
                    0.442
                  ],
                  "W_hh_h": [
                    -0.10439958629491956,
                    0.061070845273340904,
                    0.038057003172944553
                  ],
                  "sum": [
                    0.07860041370508049,
                    -0.22292915472665914,
                    0.48005700317294453
                  ],
                  "sigmoid": [
                    0.5196399931031654,
                    0.4444973825038076,
                    0.6177613351481092
                  ]
                },
                "update": {
                  "W_ih_x": [
                    -0.417,
                    0.087,
                    -0.43300000000000005
                  ],
                  "W_hh_h": [
                    -0.02811739631859908,
                    0.07767058089663845,
                    0.02086661580243672
                  ],
                  "sum": [
                    -0.34511739631859906,
                    0.2646705808966384,
                    -0.3121333841975633
                  ],
                  "sigmoid": [
                    0.4145669383583433,
                    0.56578407544997,
                    0.42259408958250133
                  ]
                },
                "candidate": {
                  "W_ih_x": [
                    -0.04200000000000004,
                    -0.273,
                    0.6560000000000001
                  ],
                  "W_hh_rh": [
                    -0.06131089157660219,
                    0.011284188304260857,
                    0.05039299938454698
                  ],
                  "sum": [
                    -0.10331089157660223,
                    -0.26171581169573915,
                    0.7063929993845471
                  ],
                  "tanh": [
                    -0.10294490344688836,
                    -0.25589968776471694,
                    0.6084099938512908
                  ]
                }
              },
              "h_t": [
                -0.12687766565307398,
                -0.12783039359998113,
                0.43046241472395175
              ]
            },
            "layer2": {
              "h_prev": [
                0.143567286438465,
                -0.025246207735716227,
                0.17034787428722625,
                0.15254593394554894
              ],
              "x_t": [
                -0.12687766565307398,
                -0.12783039359998113,
                0.43046241472395175
              ],
              "gates": {
                "reset": {
                  "W_ih_x": [
                    0.06310405637238428,
                    -0.17777199677618696,
                    -0.2258229868591867,
                    0.11166143731004215
                  ],
                  "W_hh_h": [
                    -0.06840201690368058,
                    -0.06913526748775072,
                    -0.05224640038449071,
                    -0.05282449204346962
                  ],
                  "sum": [
                    -0.005297960531296303,
                    -0.24690726426393766,
                    -0.2780693872436774,
                    0.05883694526657253
                  ],
                  "sigmoid": [
                    0.49867551296519225,
                    0.4385848725895511,
                    0.43092715491106937,
                    0.5147049944325668
                  ]
                },
                "update": {
                  "W_ih_x": [
                    -0.03405246723970353,
                    -0.024369417495851132,
                    -0.09891862015463487,
                    -0.040051611044603426
                  ],
                  "W_hh_h": [
                    -0.06523137493416498,
                    -0.05943678276655601,
                    0.012970065726525417,
                    0.052231106871241134
                  ],
                  "sum": [
                    -1.5992838421738684,
                    -1.5838062002624071,
                    -1.5859485544281096,
                    -1.4878205041733623
                  ],
                  "sigmoid": [
                    0.16808173160071258,
                    0.1702571064940806,
                    0.1699546706904336,
                    0.18424908319460992
                  ]
                },
                "candidate": {
                  "W_ih_x": [
                    0.37942099153115105,
                    -0.13363490345247178,
                    0.37137362042556216,
                    0.07632842967756212
                  ],
                  "W_hh_rh": [
                    0.0014544270947093561,
                    -0.0022829232383838063,
                    0.0017765034460053945,
                    -0.0074571895676771235
                  ],
                  "sum": [
                    0.3808754186258604,
                    -0.1359178266908556,
                    0.37315012387156754,
                    0.06887124010988499
                  ],
                  "tanh": [
                    0.36346747749905456,
                    -0.1350869991460381,
                    0.35674401566279684,
                    0.06876255519560674
                  ]
                }
              },
              "h_t": [
                0.32650627260626314,
                -0.11638582382549685,
                0.32506512083734423,
                0.08419956591723035
              ]
            }
          },
          {
            "t": 3,
            "input": "la",
            "layer1": {
              "h_prev": [
                -0.12687766565307398,
                -0.12783039359998113,
                0.43046241472395175
              ],
              "x_t": [
                -0.1,
                0.2,
                0.3,
                -0.2
              ],
              "gates": {
                "reset": {
                  "W_ih_x": [
                    0.15200000000000002,
                    -0.24000000000000002,
                    -0.206
                  ],
                  "W_hh_h": [
                    -0.14254678823318445,
                    0.07477618002345894,
                    0.08307668487134591
                  ],
                  "sum": [
                    0.009453211766815572,
                    -0.16522381997654106,
                    -0.12292331512865408
                  ],
                  "sigmoid": [
                    0.5023632853424992,
                    0.45878775649005343,
                    0.46930780843486397
                  ]
                },
                "update": {
                  "W_ih_x": [
                    -0.037000000000000005,
                    -0.104,
                    0.05400000000000001
                  ],
                  "W_hh_h": [
                    0.01626811402855061,
                    0.15399092522091856,
                    0.05618820950717727
                  ],
                  "sum": [
                    0.07926811402855061,
                    0.14999092522091856,
                    0.2101882095071773
                  ],
                  "sigmoid": [
                    0.5198066584406558,
                    0.5374275893619178,
                    0.5523544465295248
                  ]
                },
                "candidate": {
                  "W_ih_x": [
                    0.02500000000000001,
                    0.10200000000000001,
                    0.063
                  ],
                  "W_hh_rh": [
                    -0.11383355899336409,
                    0.011169469737653601,
                    0.08716646230220515
                  ],
                  "sum": [
                    -0.08883355899336408,
                    0.11316946973765361,
                    0.15016646230220515
                  ],
                  "tanh": [
                    -0.08860062049874157,
                    0.11268879915731539,
                    0.1490478019612344
                  ]
                }
              },
              "h_t": [
                -0.10849728343539719,
                -0.016572850801512926,
                0.3044884146391057
              ]
            },
            "layer2": {
              "h_prev": [
                0.32650627260626314,
                -0.11638582382549685,
                0.32506512083734423,
                0.08419956591723035
              ],
              "x_t": [
                -0.10849728343539719,
                -0.016572850801512926,
                0.3044884146391057
              ],
              "gates": {
                "reset": {
                  "W_ih_x": [
                    0.03101518344285268,
                    -0.09684285149852634,
                    -0.1489848629914848,
                    0.11180292370107268
                  ],
                  "W_hh_h": [
                    -0.1078936709219139,
                    -0.1412773918730067,
                    -0.15744462380129692,
                    -0.0414273818007348
                  ],
                  "sum": [
                    -0.07687848747906123,
                    -0.23812024337153304,
                    -0.3064294867927817,
                    0.07037554190033789
                  ],
                  "sigmoid": [
                    0.4807898386860038,
                    0.44074963907065684,
                    0.42398649902946955,
                    0.5175866276085217
                  ]
                },
                "update": {
                  "W_ih_x": [
                    -0.008824065851480429,
                    -0.02303876972676,
                    -0.10336643199206234,
                    -0.009179274679005213
                  ],
                  "W_hh_h": [
                    -0.13329736618427787,
                    -0.037893456283790365,
                    -0.04934190590227646,
                    0.01795921696481144
                  ],
                  "sum": [
                    -1.6421214320357582,
                    -1.5609322260105503,
                    -1.6527083378943388,
                    -1.4912200577141939
                  ],
                  "sigmoid": [
                    0.16217660563131187,
                    0.17351291935054952,
                    0.1607432458532336,
                    0.18373867404994604
                  ]
                },
                "candidate": {
                  "W_ih_x": [
                    0.3340745166708962,
                    -0.17061675867682807,
                    0.3369726819045843,
                    0.08395669030056602
                  ],
                  "W_hh_rh": [
                    -0.005527538533642164,
                    -0.002073724104912683,
                    0.002620388819286581,
                    -0.015759834172945717
                  ],
                  "sum": [
                    0.32854697813725403,
                    -0.17269048278174076,
                    0.33959307072387085,
                    0.0681968561276203
                  ],
                  "tanh": [
                    0.3172145684612177,
                    -0.17099405754161323,
                    0.3271140568173831,
                    0.06809132887110902
                  ]
                }
              },
              "h_t": [
                0.31872146549999153,
                -0.16151882348895277,
                0.32678470419740613,
                0.07105103498724558
              ]
            }
          },
          {
            "t": 4,
            "input": "pizza",
            "layer1": {
              "h_prev": [
                -0.10849728343539719,
                -0.016572850801512926,
                0.3044884146391057
              ],
              "x_t": [
                0.6,
                0.1,
                0.7,
                0.5
              ],
              "gates": {
                "reset": {
                  "W_ih_x": [
                    0.178,
                    -0.361,
                    -0.019999999999999962
                  ],
                  "W_hh_h": [
                    -0.12843426948575615,
                    0.0441234691524118,
                    0.044568834119097143
                  ],
                  "sum": [
                    0.049565730514243844,
                    -0.3168765308475882,
                    0.02456883411909718
                  ],
                  "sigmoid": [
                    0.5123888963519648,
                    0.42143714924990977,
                    0.506141899581202
                  ]
                },
                "update": {
                  "W_ih_x": [
                    -0.348,
                    0.196,
                    -0.705
                  ],
                  "W_hh_h": [
                    0.03777839111548295,
                    0.08313651164272363,
                    0.012807520310698742
                  ],
                  "sum": [
                    -0.210221608884517,
                    0.37913651164272366,
                    -0.5921924796893012
                  ],
                  "sigmoid": [
                    0.44763729518787637,
                    0.5936648231720463,
                    0.35613195593214625
                  ]
                },
                "candidate": {
                  "W_ih_x": [
                    -0.32899999999999996,
                    -0.237,
                    0.813
                  ],
                  "W_hh_rh": [
                    -0.07167961591051442,
                    -0.006378610836078957,
                    0.05857935752742906
                  ],
                  "sum": [
                    -0.4006796159105144,
                    -0.24337861083607895,
                    0.871579357527429
                  ],
                  "tanh": [
                    -0.380530317781142,
                    -0.23868443932757583,
                    0.7021756734019673
                  ]
                }
              },
              "h_t": [
                -0.2587581860848621,
                -0.1068246024007884,
                0.5605465320894558
              ]
            },
            "layer2": {
              "h_prev": [
                0.31872146549999153,
                -0.16151882348895277,
                0.32678470419740613,
                0.07105103498724558
              ],
              "x_t": [
                -0.2587581860848621,
                -0.1068246024007884,
                0.5605465320894558
              ],
              "gates": {
                "reset": {
                  "W_ih_x": [
                    0.08214941986363238,
                    -0.17992944252815216,
                    -0.32379811345663206,
                    0.21032241015211586
                  ],
                  "W_hh_h": [
                    -0.12076871298011821,
                    -0.1521254447901628,
                    -0.1487605300235878,
                    -0.055174270411768256
                  ],
                  "sum": [
                    -0.038619293116485834,
                    -0.33205488731831495,
                    -0.47255864348021986,
                    0.1551481397403476
                  ],
                  "sigmoid": [
                    0.49034637651562346,
                    0.4177407215820431,
                    0.38401082607685055,
                    0.538709418377217
                  ]
                },
                "update": {
                  "W_ih_x": [
                    -0.048480823776658674,
                    -0.05758553357711578,
                    -0.1502925113605769,
                    0.00015706202677820457
                  ],
                  "W_hh_h": [
                    -0.15112627217367436,
                    -0.025692629738217097,
                    -0.06727849952070901,
                    -0.004122059467859089
                  ],
                  "sum": [
                    -1.699607095950333,
                    -1.5832781633153328,
                    -1.7175710108812858,
                    -1.503964997441081
                  ],
                  "sigmoid": [
                    0.1545165875774115,
                    0.17033171506399253,
                    0.15218429742241882,
                    0.1818349029784303
                  ]
                },
                "candidate": {
                  "W_ih_x": [
                    0.5377207566475436,
                    -0.19234636915775713,
                    0.560833683314533,
                    0.23962074431120833
                  ],
                  "W_hh_rh": [
                    -0.004299034123938287,
                    -0.002380077912694148,
                    0.0017185401163018511,
                    -0.014080917578162194
                  ],
                  "sum": [
                    0.5334217225236053,
                    -0.19472644707045128,
                    0.5625522234308349,
                    0.22553982673304615
                  ],
                  "tanh": [
                    0.4879923260510339,
                    -0.19230197552886266,
                    0.5098686218781189,
                    0.22179180110021085
                  ]
                }
              },
              "h_t": [
                0.4618371703023949,
                -0.1870586284468292,
                0.4820061244965356,
                0.19438186851916556
              ]
            }
          },
          {
            "t": 5,
            "input": "de",
            "layer1": {
              "h_prev": [
                -0.2587581860848621,
                -0.1068246024007884,
                0.5605465320894558
              ],
              "x_t": [
                0.0,
                0.3,
                -0.4,
                0.2
              ],
              "gates": {
                "reset": {
                  "W_ih_x": [
                    0.06300000000000001,
                    0.14800000000000002,
                    0.349
                  ],
                  "W_hh_h": [
                    -0.23378595698040172,
                    0.11537847066910267,
                    0.10220635805994605
                  ],
                  "sum": [
                    -0.17078595698040172,
                    0.2633784706691027,
                    0.451206358059946
                  ],
                  "sigmoid": [
                    0.45740698931567536,
                    0.5654666126174414,
                    0.6109260180748257
                  ]
                },
                "update": {
                  "W_ih_x": [
                    -0.019000000000000003,
                    -0.076,
                    0.079
                  ],
                  "W_hh_h": [
                    0.007120678081172796,
                    0.19537985395338983,
                    0.05611884007739132
                  ],
                  "sum": [
                    0.0881206780811728,
                    0.21937985395338983,
                    0.23511884007739134
                  ],
                  "sigmoid": [
                    0.5220159247599502,
                    0.5546260543090501,
                    0.5585104158159401
                  ]
                },
                "candidate": {
                  "W_ih_x": [
                    0.251,
                    -0.07800000000000001,
                    -0.013999999999999985
                  ],
                  "W_hh_rh": [
                    -0.17761170255854944,
                    0.004473008250898241,
                    0.139921991971405
                  ],
                  "sum": [
                    0.07338829744145056,
                    -0.07352699174910177,
                    0.12592199197140502
                  ],
                  "tanh": [
                    0.07325682806702842,
                    -0.07339477666047518,
                    0.1252606320450542
                  ]
                }
              },
              "h_t": [
                -0.10006029657965866,
                -0.09193582900706422,
                0.3683723410776687
              ]
            },
            "layer2": {
              "h_prev": [
                0.4618371703023949,
                -0.1870586284468292,
                0.4820061244965356,
                0.19438186851916556
              ],
              "x_t": [
                -0.10006029657965866,
                -0.09193582900706422,
                0.3683723410776687
              ],
              "gates": {
                "reset": {
                  "W_ih_x": [
                    0.04896921754581309,
                    -0.14995914859683968,
                    -0.1843639214792407,
                    0.09696827166808261
                  ],
                  "W_hh_h": [
                    -0.17875937563728655,
                    -0.21804341366444244,
                    -0.20490042693315919,
                    -0.09662095502410706
                  ],
                  "sum": [
                    -0.12979015809147346,
                    -0.36800256226128214,
                    -0.3892643484123999,
                    0.00034731664397555373
                  ],
                  "sigmoid": [
                    0.46759793342268285,
                    0.4090237609731678,
                    0.4038944063828969,
                    0.500086829160121
                  ]
                },
                "update": {
                  "W_ih_x": [
                    -0.022813637358904897,
                    -0.018729474964883825,
                    -0.0934511526263945,
                    -0.035833421473306475
                  ],
                  "W_hh_h": [
                    -0.21007156525103482,
                    -0.07267927071830316,
                    -0.06276830663353328,
                    0.04114919460638589
                  ],
                  "sum": [
                    -1.7328852026099397,
                    -1.591408745683187,
                    -1.6562194592599278,
                    -1.4946842268669205
                  ],
                  "sigmoid": [
                    0.15021890263715373,
                    0.16918578859084785,
                    0.16027014256859182,
                    0.18321969131602503
                  ]
                },
                "candidate": {
                  "W_ih_x": [
                    0.3417748876063676,
                    -0.13946723662661092,
                    0.3325163560546961,
                    0.053238078798265726
                  ],
                  "W_hh_rh": [
                    -0.003928016707422665,
                    -0.003767215523608293,
                    0.0028158625650013015,
                    -0.021154713039156024
                  ],
                  "sum": [
                    0.33784687089894494,
                    -0.1432344521502192,
                    0.3353322186196974,
                    0.0320833657591097
                  ],
                  "tanh": [
                    0.3255538170375305,
                    -0.1422628866260112,
                    0.32330384369519927,
                    0.03207236203393535
                  ]
                }
              },
              "h_t": [
                0.34602615281269,
                -0.1498416895314783,
                0.3487390808651901,
                0.061810659709815585
              ]
            }
          },
          {
            "t": 6,
            "input": "este",
            "layer1": {
              "h_prev": [
                -0.10006029657965866,
                -0.09193582900706422,
                0.3683723410776687
              ],
              "x_t": [
                0.2,
                -0.1,
                0.1,
                0.6
              ],
              "gates": {
                "reset": {
                  "W_ih_x": [
                    0.011999999999999993,
                    0.144,
                    0.23299999999999996
                  ],
                  "W_hh_h": [
                    -0.12423765660409272,
                    0.05777390752845699,
                    0.06683170237060315
                  ],
                  "sum": [
                    -0.11223765660409273,
                    0.20177390752845697,
                    0.2998317023706031
                  ],
                  "sigmoid": [
                    0.4719700048413253,
                    0.5502730298982252,
                    0.5744013745419613
                  ]
                },
                "update": {
                  "W_ih_x": [
                    -0.088,
                    0.143,
                    -0.392
                  ],
                  "W_hh_h": [
                    0.02595845263991072,
                    0.1230934123127378,
                    0.04093923281746393
                  ],
                  "sum": [
                    0.03795845263991073,
                    0.36609341231273773,
                    -0.2510607671825361
                  ],
                  "sigmoid": [
                    0.509488473903011,
                    0.5905146729274182,
                    0.4375624254002732
                  ]
                },
                "candidate": {
                  "W_ih_x": [
                    -0.063,
                    -0.227,
                    0.344
                  ],
                  "W_hh_rh": [
                    -0.11272363229724375,
                    0.0009621423911998233,
                    0.08665633719424952
                  ],
                  "sum": [
                    -0.17572363229724375,
                    -0.22603785760880019,
                    0.4306563371942495
                  ],
                  "tanh": [
                    -0.1739369855201959,
                    -0.22226528069951784,
                    0.40586967333053386
                  ]
                }
              },
              "h_t": [
                -0.13629766401487414,
                -0.14530382716053886,
                0.3894622496839303
              ]
            },
            "layer2": {
              "h_prev": [
                0.34602615281269,
                -0.1498416895314783,
                0.3487390808651901,
                0.061810659709815585
              ],
              "x_t": [
                -0.13629766401487414,
                -0.14530382716053886,
                0.3894622496839303
              ],
              "gates": {
                "reset": {
                  "W_ih_x": [
                    0.06662700492475815,
                    -0.16199275646689698,
                    -0.2228565636058129,
                    0.10207570310954125
                  ],
                  "W_hh_h": [
                    -0.11948253815798636,
                    -0.1540920687470002,
                    -0.16885077824042743,
                    -0.04394482063918556
                  ],
                  "sum": [
                    -0.05285553323322821,
                    -0.3160848252138972,
                    -0.39170734184624034,
                    0.058130882470355694
                  ],
                  "sigmoid": [
                    0.48678919214279587,
                    0.42163020115243927,
                    0.40330636056534813,
                    0.5145286295865079
                  ]
                },
                "update": {
                  "W_ih_x": [
                    -0.04303376952382785,
                    -0.027558086018732025,
                    -0.07405664213023837,
                    -0.030280461155431357
                  ],
                  "W_hh_h": [
                    -0.15072256076996013,
                    -0.029026596597642562,
                    -0.06593631762436532,
                    -0.0009257881001290408
                  ],
                  "sum": [
                    -1.693756330293788,
                    -1.5565846826163745,
                    -1.6399929597546037,
                    -1.5312062492555605
                  ],
                  "sigmoid": [
                    0.15528248464786815,
                    0.1741372691971334,
                    0.16246602055033244,
                    0.1778172656717247
                  ]
                },
                "candidate": {
                  "W_ih_x": [
                    0.31342483645439634,
                    -0.07438985175481157,
                    0.31256607993940516,
                    0.099995865506215
                  ],
                  "W_hh_rh": [
                    -0.006409443769053544,
                    -0.0020658246969228627,
                    0.002441326397548917,
                    -0.01623287536106303
                  ],
                  "sum": [
                    0.3070153926853428,
                    -0.07645567645173443,
                    0.31500740633695407,
                    0.08376299014515197
                  ],
                  "tanh": [
                    0.2977194589988639,
                    -0.07630705082397467,
                    0.30498564182798804,
                    0.08356763800909807
                  ]
                }
              },
              "h_t": [
                0.3052206424393986,
                -0.08911217199989717,
                0.31209408895375385,
                0.07969887161864062
              ]
            }
          },
          {
            "t": 7,
            "input": "lugar",
            "layer1": {
              "h_prev": [
                -0.13629766401487414,
                -0.14530382716053886,
                0.3894622496839303
              ],
              "x_t": [
                0.5,
                0.4,
                0.2,
                -0.3
              ],
              "gates": {
                "reset": {
                  "W_ih_x": [
                    0.13100000000000003,
                    -0.505,
                    -0.10299999999999998
                  ],
                  "W_hh_h": [
                    -0.1274680391472099,
                    0.0804652629105461,
                    0.08289548764998668
                  ],
                  "sum": [
                    0.0035319608527901447,
                    -0.4245347370894539,
                    -0.0201045123500133
                  ],
                  "sigmoid": [
                    0.5008829892952754,
                    0.395432138212135,
                    0.494974041198807
                  ]
                },
                "update": {
                  "W_ih_x": [
                    -0.278,
                    0.0,
                    -0.11800000000000002
                  ],
                  "W_hh_h": [
                    -0.008893450170128235,
                    0.15548426861029782,
                    0.06339331416189721
                  ],
                  "sum": [
                    -0.18689345017012823,
                    0.2554842686102978,
                    0.045393314161897194
                  ],
                  "sigmoid": [
                    0.45341216474885915,
                    0.5635259027913884,
                    0.5113463802892471
                  ]
                },
                "candidate": {
                  "W_ih_x": [
                    -0.16699999999999998,
                    0.019000000000000017,
                    0.31800000000000006
                  ],
                  "W_hh_rh": [
                    -0.10999641391004049,
                    0.013565236179270499,
                    0.08434022685200844
                  ],
                  "sum": [
                    -0.2769964139100405,
                    0.03256523617927051,
                    0.4023402268520085
                  ],
                  "tanh": [
                    -0.27012292095120927,
                    0.03255372930798344,
                    0.3819495685931554
                  ]
                }
              },
              "h_t": [
                -0.2094449215056333,
                -0.06767361076921093,
                0.38579115087519056
              ]
            },
            "layer2": {
              "h_prev": [
                0.3052206424393986,
                -0.08911217199989717,
                0.31209408895375385,
                0.07969887161864062
              ],
              "x_t": [
                -0.2094449215056333,
                -0.06767361076921093,
                0.38579115087519056
              ],
              "gates": {
                "reset": {
                  "W_ih_x": [
                    0.05964212941502269,
                    -0.11079210636506724,
                    -0.23663723170800444,
                    0.16198859777540284
                  ],
                  "W_hh_h": [
                    -0.0992178389556344,
                    -0.12416174354765291,
                    -0.15209102464320576,
                    -0.03167125102214014
                  ],
                  "sum": [
                    -0.0395757095406117,
                    -0.23495384991272017,
                    -0.3887282563512102,
                    0.1303173467532627
                  ],
                  "sigmoid": [
                    0.49010736376537484,
                    0.44153026727920125,
                    0.40402348454626646,
                    0.5325333080056885
                  ]
                },
                "update": {
                  "W_ih_x": [
                    -0.0384311032636664,
                    -0.04815756968132507,
                    -0.10399080727440085,
                    0.01566448893367191
                  ],
                  "W_hh_h": [
                    -0.11868020477967997,
                    -0.04439862692627525,
                    -0.034983231503264337,
                    0.02053137845821448
                  ],
                  "sum": [
                    -1.6571113080433464,
                    -1.5925561966076003,
                    -1.6389740387776652,
                    -1.4638041326081137
                  ],
                  "sigmoid": [
                    0.16015015069129793,
                    0.16902456186098264,
                    0.16260471364315066,
                    0.18788618247037042
                  ]
                },
                "candidate": {
                  "W_ih_x": [
                    0.3716983570531267,
                    -0.12197591228958114,
                    0.39844239544569476,
                    0.2115004877864633
                  ],
                  "W_hh_rh": [
                    -0.005790788278785342,
                    -0.0022131708367162466,
                    0.0036173976317928637,
                    -0.014909361176809138
                  ],
                  "sum": [
                    0.3659075687743414,
                    -0.1241890831262974,
                    0.4020597930774876,
                    0.19659112660965417
                  ],
                  "tanh": [
                    0.350406931137957,
                    -0.12355454430666468,
                    0.38171002038035823,
                    0.19409705336353789
                  ]
                }
              },
              "h_t": [
                0.3431703401937024,
                -0.11773293741806046,
                0.370390141785734,
                0.17260321571393755
              ]
            }
          }
        ]
      },
      "head": {
        "input": [
          0.3431703401937024,
          -0.11773293741806046,
          0.370390141785734,
          0.17260321571393755
        ],
        "dense1": {
          "W": [
            [
              0.04,
              -0.22,
              -0.08,
              0.34
            ],
            [
              -0.5,
              -0.38,
              0.17,
              0.33
            ],
            [
              -0.36,
              0.08,
              0.39,
              -0.29
            ],
            [
              -0.31,
              -0.39,
              -0.28,
              0.48
            ],
            [
              0.31,
              -0.33,
              0.32,
              -0.23
            ],
            [
              -0.07,
              0.44,
              0.32,
              -0.16
            ],
            [
              -0.32,
              -0.13,
              -0.49,
              -0.25
            ],
            [
              0.3,
              -0.48,
              0.1,
              0.1
            ]
          ],
          "b": [
            0.0,
            0.0,
            0.0,
            0.0,
            0.0,
            0.0,
            0.0,
            0.0
          ],
          "z": [
            0.06868194183960144,
            -0.006921268588814061,
            -0.03856273472378332,
            -0.08132665602431965,
            0.22406078056523693,
            0.015083914579699098,
            -0.31915120040113093,
            0.2137622477687469
          ],
          "relu": [
            0.06868194183960144,
            0.0,
            0.0,
            0.0,
            0.22406078056523693,
            0.015083914579699098,
            0.0,
            0.2137622477687469
          ]
        },
        "dense2": {
          "W": [
            [
              -0.39,
              -0.12,
              -0.46,
              0.39,
              0.48,
              -0.44,
              0.39,
              0.08
            ],
            [
              0.24,
              0.13,
              0.08,
              -0.48,
              -0.29,
              0.04,
              0.27,
              -0.25
            ],
            [
              -0.21,
              0.35,
              0.48,
              0.38,
              -0.14,
              0.1,
              -0.15,
              -0.16
            ]
          ],
          "b": [
            0.0,
            0.0,
            2.0
          ],
          "logits": [
            0.0912272747603013,
            -0.10133116568141312,
            1.9215147147495208
          ]
        },
        "softmax": [
          0.12406139957401507,
          0.10233156314049156,
          0.7736070372854934
        ],
        "prediccion": "positivo",
        "weights": {
          "W_d1": [
            [
              0.04,
              -0.22,
              -0.08,
              0.34
            ],
            [
              -0.5,
              -0.38,
              0.17,
              0.33
            ],
            [
              -0.36,
              0.08,
              0.39,
              -0.29
            ],
            [
              -0.31,
              -0.39,
              -0.28,
              0.48
            ],
            [
              0.31,
              -0.33,
              0.32,
              -0.23
            ],
            [
              -0.07,
              0.44,
              0.32,
              -0.16
            ],
            [
              -0.32,
              -0.13,
              -0.49,
              -0.25
            ],
            [
              0.3,
              -0.48,
              0.1,
              0.1
            ]
          ],
          "b_d1": [
            0.0,
            0.0,
            0.0,
            0.0,
            0.0,
            0.0,
            0.0,
            0.0
          ],
          "W_d2": [
            [
              -0.39,
              -0.12,
              -0.46,
              0.39,
              0.48,
              -0.44,
              0.39,
              0.08
            ],
            [
              0.24,
              0.13,
              0.08,
              -0.48,
              -0.29,
              0.04,
              0.27,
              -0.25
            ],
            [
              -0.21,
              0.35,
              0.48,
              0.38,
              -0.14,
              0.1,
              -0.15,
              -0.16
            ]
          ],
          "b_d2": [
            0.0,
            0.0,
            2.0
          ]
        }
      }
    },
    "LSTM_sentiment": {
      "encoder": {
        "weights": {
          "layer1": {
            "W_ih_f": [
              [
                0.02,
                0.2,
                -0.23,
                0.17
              ],
              [
                0.41,
                0.19,
                -0.29,
                -0.18
              ],
              [
                -0.23,
                -0.38,
                0.5,
                -0.42
              ]
            ],
            "W_hh_f": [
              [
                -0.22,
                0.04,
                0.35
              ],
              [
                -0.3,
                0.31,
                -0.13
              ],
              [
                0.31,
                -0.49,
                0.17
              ]
            ],
            "b_f": [
              1.0,
              1.0,
              1.0
            ],
            "W_ih_i": [
              [
                -0.21,
                -0.18,
                -0.08,
                -0.01
              ],
              [
                0.44,
                0.23,
                0.48,
                0.08
              ],
              [
                0.01,
                -0.05,
                0.37,
                0.12
              ]
            ],
            "W_hh_i": [
              [
                0.03,
                -0.43,
                -0.02
              ],
              [
                -0.27,
                0.03,
                -0.4
              ],
              [
                -0.35,
                0.45,
                0.47
              ]
            ],
            "b_i": [
              0.0,
              0.0,
              0.0
            ],
            "W_ih_g": [
              [
                -0.42,
                0.32,
                -0.41,
                0.21
              ],
              [
                0.1,
                -0.33,
                0.21,
                -0.24
              ],
              [
                0.38,
                -0.07,
                0.41,
                -0.47
              ]
            ],
            "W_hh_g": [
              [
                0.24,
                0.19,
                0.45
              ],
              [
                0.12,
                0.47,
                -0.23
              ],
              [
                0.33,
                0.47,
                0.15
              ]
            ],
            "b_g": [
              0.0,
              0.0,
              0.0
            ],
            "W_ih_o": [
              [
                0.08,
                0.42,
                0.42,
                -0.49
              ],
              [
                0.09,
                -0.48,
                -0.29,
                0.22
              ],
              [
                -0.36,
                0.2,
                -0.11,
                0.09
              ]
            ],
            "W_hh_o": [
              [
                0.4,
                -0.05,
                0.4
              ],
              [
                0.06,
                0.35,
                -0.03
              ],
              [
                -0.3,
                -0.2,
                0.1
              ]
            ],
            "b_o": [
              0.0,
              0.0,
              0.0
            ]
          },
          "layer2": {
            "W_ih_f": [
              [
                0.37,
                0.47,
                -0.27
              ],
              [
                0.28,
                -0.22,
                0.25
              ],
              [
                -0.13,
                -0.49,
                0.32
              ],
              [
                -0.37,
                -0.09,
                -0.34
              ]
            ],
            "W_hh_f": [
              [
                0.26,
                0.17,
                0.31,
                0.16
              ],
              [
                -0.17,
                0.17,
                0.26,
                -0.37
              ],
              [
                -0.41,
                -0.28,
                0.33,
                -0.32
              ],
              [
                -0.41,
                -0.32,
                -0.15,
                -0.1
              ]
            ],
            "b_f": [
              1.0,
              1.0,
              1.0,
              1.0
            ],
            "W_ih_i": [
              [
                -0.04,
                0.16,
                0.38
              ],
              [
                -0.49,
                0.25,
                0.22
              ],
              [
                -0.28,
                0.25,
                -0.27
              ],
              [
                -0.37,
                -0.36,
                -0.39
              ]
            ],
            "W_hh_i": [
              [
                -0.11,
                0.15,
                -0.3,
                -0.19
              ],
              [
                -0.21,
                -0.12,
                0.44,
                -0.38
              ],
              [
                0.48,
                0.04,
                -0.42,
                -0.02
              ],
              [
                0.07,
                0.11,
                0.12,
                -0.07
              ]
            ],
            "b_i": [
              0.0,
              0.0,
              0.0,
              0.0
            ],
            "W_ih_g": [
              [
                0.11,
                0.1,
                0.36
              ],
              [
                0.33,
                0.24,
                -0.41
              ],
              [
                0.03,
                -0.01,
                0.2
              ],
              [
                -0.27,
                -0.05,
                -0.07
              ]
            ],
            "W_hh_g": [
              [
                0.48,
                -0.15,
                0.28,
                -0.26
              ],
              [
                0.2,
                -0.34,
                0.45,
                0.23
              ],
              [
                -0.33,
                0.08,
                -0.32,
                -0.24
              ],
              [
                -0.38,
                0.49,
                0.13,
                -0.39
              ]
            ],
            "b_g": [
              0.0,
              0.0,
              0.0,
              0.0
            ],
            "W_ih_o": [
              [
                0.15,
                -0.06,
                -0.31
              ],
              [
                -0.34,
                -0.5,
                -0.46
              ],
              [
                -0.01,
                -0.34,
                0.07
              ],
              [
                -0.39,
                0.17,
                -0.32
              ]
            ],
            "W_hh_o": [
              [
                -0.03,
                0.45,
                0.1,
                -0.04
              ],
              [
                0.09,
                -0.37,
                0.15,
                -0.09
              ],
              [
                0.06,
                0.01,
                -0.09,
                0.34
              ],
              [
                0.45,
                0.34,
                0.33,
                0.26
              ]
            ],
            "b_o": [
              0.0,
              0.0,
              0.0,
              0.0
            ]
          }
        },
        "timesteps": [
          {
            "t": 1,
            "input": "Me",
            "layer1": {
              "h_prev": [
                0.0,
                0.0,
                0.0
              ],
              "c_prev": [
                0.0,
                0.0,
                0.0
              ],
              "x_t": [
                0.3,
                -0.2,
                0.5,
                0.1
              ],
              "gates": {
                "forget": {
                  "W_ih_x": [
                    -0.132,
                    -0.07800000000000001,
                    0.215
                  ],
                  "W_hh_h": [
                    0.0,
                    0.0,
                    0.0
                  ],
                  "sum": [
                    0.868,
                    0.9219999999999999,
                    1.215
                  ],
                  "sigmoid": [
                    0.7043293692555267,
                    0.7154494441609213,
                    0.7711824455558168
                  ]
                },
                "input": {
                  "W_ih_x": [
                    -0.068,
                    0.33399999999999996,
                    0.21
                  ],
                  "W_hh_h": [
                    0.0,
                    0.0,
                    0.0
                  ],
                  "sum": [
                    -0.068,
                    0.33399999999999996,
                    0.21
                  ],
                  "sigmoid": [
                    0.48300654763905504,
                    0.5827323189732048,
                    0.5523079095743253
                  ]
                },
                "candidate": {
                  "W_ih_x": [
                    -0.37399999999999994,
                    0.17700000000000002,
                    0.2859999999999999
                  ],
                  "W_hh_h": [
                    0.0,
                    0.0,
                    0.0
                  ],
                  "sum": [
                    -0.37399999999999994,
                    0.17700000000000002,
                    0.2859999999999999
                  ],
                  "tanh": [
                    -0.35748550621737274,
                    0.17517446249760252,
                    0.27844907303512634
                  ]
                },
                "output": {
                  "W_ih_x": [
                    0.10099999999999998,
                    1.3877787807814457e-17,
                    -0.194
                  ],
                  "W_hh_h": [
                    0.0,
                    0.0,
                    0.0
                  ],
                  "sum": [
                    0.10099999999999998,
                    1.3877787807814457e-17,
                    -0.194
                  ],
                  "sigmoid": [
                    0.5252285572692973,
                    0.5,
                    0.451651541849306
                  ]
                },
                "c_t": [
                  -0.17266784018905315,
                  0.1020798207561126,
                  0.15378962545093924
                ]
              },
              "h_t": [
                -0.0897994172887024,
                0.050863362660315235,
                0.06891685300056341
              ],
              "c_t": [
                -0.17266784018905315,
                0.1020798207561126,
                0.15378962545093924
              ]
            },
            "layer2": {
              "h_prev": [
                0.0,
                0.0,
                0.0,
                0.0
              ],
              "c_prev": [
                0.0,
                0.0,
                0.0,
                0.0
              ],
              "x_t": [
                -0.0897994172887024,
                0.050863362660315235,
                0.06891685300056341
              ],
              "gates": {
                "forget": {
                  "W_ih_x": [
                    -0.02792755425662385,
                    -0.019104563375965174,
                    0.00880426950415714,
                    0.005216351737199955
                  ],
                  "W_hh_h": [
                    0.0,
                    0.0,
                    0.0,
                    0.0
                  ],
                  "sum": [
                    0.9720724457433761,
                    0.9808954366240348,
                    1.0088042695041572,
                    1.0052163517372
                  ],
                  "sigmoid": [
                    0.7255323874060231,
                    0.7272858544033289,
                    0.7327860776643272,
                    0.7320829386632127
                  ]
                },
                "input": {
                  "W_ih_x": [
                    0.03791851885741263,
                    0.07187926279666694,
                    0.01925212719576336,
                    -0.011962598831113325
                  ],
                  "W_hh_h": [
                    0.0,
                    0.0,
                    0.0,
                    0.0
                  ],
                  "sum": [
                    0.03791851885741263,
                    0.07187926279666694,
                    0.01925212719576336,
                    -0.011962598831113325
                  ],
                  "sigmoid": [
                    0.5094784940488901,
                    0.5179620827477627,
                    0.5048128831441764,
                    0.4970093859561488
                  ]
                },
                "candidate": {
                  "W_ih_x": [
                    0.020018467444477085,
                    -0.045682510397027136,
                    0.010580754454848459,
                    0.01687849482489445
                  ],
                  "W_hh_h": [
                    0.0,
                    0.0,
                    0.0,
                    0.0
                  ],
                  "sum": [
                    0.020018467444477085,
                    -0.045682510397027136,
                    0.010580754454848459,
                    0.01687849482489445
                  ],
                  "tanh": [
                    0.02001579381258025,
                    -0.04565075875021412,
                    0.010580359625701623,
                    0.016876892205465448
                  ]
                },
                "output": {
                  "W_ih_x": [
                    -0.03788593878309893,
                    -0.026601631832257968,
                    -0.011571369421580718,
                    0.021615151434667235
                  ],
                  "W_hh_h": [
                    0.0,
                    0.0,
                    0.0,
                    0.0
                  ],
                  "sum": [
                    -0.03788593878309893,
                    -0.026601631832257968,
                    -0.011571369421580718,
                    0.021615151434667235
                  ],
                  "sigmoid": [
                    0.4905296480451477,
                    0.4933499841925199,
                    0.4971071899226499,
                    0.5054035774743704
                  ]
                },
                "c_t": [
                  0.010197616488826479,
                  -0.023645362081276558,
                  0.005341101847352675,
                  0.008387973831886495
                ]
              },
              "h_t": [
                0.005002059837993621,
                -0.01166326543389991,
                0.002655074883042591,
                0.004239212561875651
              ],
              "c_t": [
                0.010197616488826479,
                -0.023645362081276558,
                0.005341101847352675,
                0.008387973831886495
              ]
            }
          },
          {
            "t": 2,
            "input": "encantó",
            "layer1": {
              "h_prev": [
                -0.0897994172887024,
                0.050863362660315235,
                0.06891685300056341
              ],
              "c_prev": [
                -0.17266784018905315,
                0.1020798207561126,
                0.15378962545093924
              ],
              "x_t": [
                0.8,
                0.6,
                -0.1,
                0.4
              ],
              "gates": {
                "forget": {
                  "W_ih_x": [
                    0.227,
                    0.39899999999999997,
                    -0.6300000000000001
                  ],
                  "W_hh_h": [
                    0.04591130486012433,
                    0.0337482767212352,
                    -0.041045002052956435
                  ],
                  "sum": [
                    1.2729113048601244,
                    1.4327482767212352,
                    0.3289549979470434
                  ],
                  "sigmoid": [
                    0.7812407079470371,
                    0.8073291679704102,
                    0.5815050900420312
                  ]
                },
                "input": {
                  "W_ih_x": [
                    -0.272,
                    0.4740000000000001,
                    -0.010999999999999996
                  ],
                  "W_hh_h": [
                    -0.025943565522607893,
                    -0.001794997652466257,
                    0.0867092301584525
                  ],
                  "sum": [
                    -0.2979435655226079,
                    0.4722050023475338,
                    0.0757092301584525
                  ],
                  "sigmoid": [
                    0.42606027248168005,
                    0.6159055179163024,
                    0.5189182719521678
                  ]
                },
                "candidate": {
                  "W_ih_x": [
                    -0.019000000000000017,
                    -0.23500000000000004,
                    0.03300000000000006
                  ],
                  "W_hh_h": [
                    0.019124762606424855,
                    -0.002721025814425714,
                    0.004609500695160877
                  ],
                  "sum": [
                    0.0001247626064248379,
                    -0.23772102581442575,
                    0.03760950069516093
                  ],
                  "tanh": [
                    0.0001247626057774985,
                    -0.23334201111009711,
                    0.037591778161891944
                  ]
                },
                "output": {
                  "W_ih_x": [
                    0.07799999999999999,
                    -0.09899999999999996,
                    -0.12099999999999997
                  ],
                  "W_hh_h": [
                    -0.010896193848271358,
                    0.010346706303771285,
                    0.023658837954604016
                  ],
                  "sum": [
                    0.06710380615172863,
                    -0.08865329369622868,
                    -0.09734116204539595
                  ],
                  "sigmoid": [
                    0.5167696593061657,
                    0.4778511810570389,
                    0.4756839066508552
                  ]
                },
                "c_t": [
                  -0.13484198931916866,
                  -0.061304615446794955,
                  0.10893651055875689
                ]
              },
              "h_t": [
                -0.06926296872494771,
                -0.029257839260159516,
                0.051615330417519735
              ],
              "c_t": [
                -0.13484198931916866,
                -0.061304615446794955,
                0.10893651055875689
              ]
            },
            "layer2": {
              "h_prev": [
                0.005002059837993621,
                -0.01166326543389991,
                0.002655074883042591,
                0.004239212561875651
              ],
              "c_prev": [
                0.010197616488826479,
                -0.023645362081276558,
                0.005341101847352675,
                0.008387973831886495
              ],
              "x_t": [
                -0.06926296872494771,
                -0.029257839260159516,
                0.051615330417519735
              ],
              "gates": {
                "forget": {
                  "W_ih_x": [
                    -0.05331462209323595,
                    -5.307400137033284e-05,
                    0.03985743290532768,
                    0.010711291619688298
                  ],
                  "W_hh_h": [
                    0.0008191276577586642,
                    -0.0037112944745248174,
                    0.0007344964795184374,
                    0.0008592179166266325
                  ],
                  "sum": [
                    0.9475045055645227,
                    0.9962356315241049,
                    1.040591929384846,
                    1.011570509536315
                  ],
                  "sigmoid": [
                    0.7206130371165724,
                    0.730317815433126,
                    0.7389642031095901,
                    0.7333273879833574
                  ]
                },
                "input": {
                  "W_ih_x": [
                    0.017703090026029884,
                    0.037979767552038836,
                    -0.0018569677847848486,
                    0.016030141699055377
                  ],
                  "W_hh_h": [
                    -0.0039016892489334358,
                    -9.350853888467881e-05,
                    0.0007345424027655402,
                    -0.0009109509024356211
                  ],
                  "sum": [
                    0.013801400777096448,
                    0.03788625901315416,
                    -0.0011224253820193084,
                    0.015119190796619756
                  ],
                  "sigmoid": [
                    0.5034502954271428,
                    0.5094704319836451,
                    0.49971939368395507,
                    0.5037797256988263
                  ]
                },
                "candidate": {
                  "W_ih_x": [
                    0.008036808464546904,
                    -0.051040946572854115,
                    0.008537755414357112,
                    0.016550820389517478
                  ],
                  "W_hh_h": [
                    0.0037917042384861804,
                    0.0071357248017252595,
                    -0.004450775958673674,
                    -0.008923915965384499
                  ],
                  "sum": [
                    0.011828512703033084,
                    -0.043905221771128856,
                    0.004086979455683438,
                    0.007626904424132979
                  ],
                  "tanh": [
                    0.011827961076862164,
                    -0.04387703193621212,
                    0.004086956700349802,
                    0.007626756542733255
                  ]
                },
                "output": {
                  "W_ih_x": [
                    -0.0246347273825637,
                    0.014435277004502905,
                    0.014253368164930093,
                    0.005521819394896173
                  ],
                  "W_hh_h": [
                    -0.0053025922545655345,
                    0.004782325697849973,
                    0.0013858664675045062,
                    0.00026378665706288437
                  ],
                  "sum": [
                    -0.029937319637129235,
                    0.019217602702352878,
                    0.0156392346324346,
                    0.005785606051959057
                  ],
                  "sigmoid": [
                    0.49251622902221487,
                    0.5048042528191106,
                    0.5039097289697968,
                    0.5014463974783582
                  ]
                },
                "c_t": [
                  0.013303325887810288,
                  -0.03962267959502535,
                  0.005989214594667509,
                  0.009993336259679965
                ]
              },
              "h_t": [
                0.006551717399949813,
                -0.019991236470330385,
                0.003017987417461989,
                0.005010955657998883
              ],
              "c_t": [
                0.013303325887810288,
                -0.03962267959502535,
                0.005989214594667509,
                0.009993336259679965
              ]
            }
          },
          {
            "t": 3,
            "input": "la",
            "layer1": {
              "h_prev": [
                -0.06926296872494771,
                -0.029257839260159516,
                0.051615330417519735
              ],
              "c_prev": [
                -0.13484198931916866,
                -0.061304615446794955,
                0.10893651055875689
              ],
              "x_t": [
                -0.1,
                0.2,
                0.3,
                -0.2
              ],
              "gates": {
                "forget": {
                  "W_ih_x": [
                    -0.065,
                    -0.05399999999999999,
                    0.181
                  ],
                  "W_hh_h": [
                    0.03213290519521402,
                    0.004998967492557296,
                    0.001639427103722729
                  ],
                  "sum": [
                    0.967132905195214,
                    0.9509989674925573,
                    1.1826394271037226
                  ],
                  "sigmoid": [
                    0.7245476562821763,
                    0.7213160340721552,
                    0.7654220478621122
                  ]
                },
                "input": {
                  "W_ih_x": [
                    -0.03699999999999999,
                    0.12999999999999998,
                    0.076
                  ],
                  "W_hh_h": [
                    0.009470675211769766,
                    -0.002822865789076798,
                    0.03533521668289419
                  ],
                  "sum": [
                    -0.027529324788230225,
                    0.12717713421092317,
                    0.11133521668289419
                  ],
                  "sigmoid": [
                    0.49311810342576606,
                    0.5317514992934043,
                    0.5278050885341032
                  ]
                },
                "candidate": {
                  "W_ih_x": [
                    -0.05899999999999999,
                    0.034999999999999996,
                    0.16499999999999998
                  ],
                  "W_hh_h": [
                    0.0010447967344661242,
                    -0.03393426669529823,
                    -0.028865664568879755
                  ],
                  "sum": [
                    -0.05795520326553386,
                    0.001065733304701763,
                    0.13613433543112022
                  ],
                  "tanh": [
                    -0.057890403570492695,
                    0.001065732901219766,
                    0.13529955070720595
                  ]
                },
                "output": {
                  "W_ih_x": [
                    0.3,
                    -0.236,
                    0.025000000000000005
                  ],
                  "W_hh_h": [
                    -0.005596163359963212,
                    -0.015944481777078287,
                    0.031791991511268186
                  ],
                  "sum": [
                    0.2944038366400368,
                    -0.2519444817770783,
                    0.056791991511268194
                  ],
                  "sigmoid": [
                    0.573073921589947,
                    0.43734495388301464,
                    0.5141941830055053
                  ]
                },
                "c_t": [
                  -0.12624625334486345,
                  -0.0436532970163308,
                  0.15479419833847755
                ]
              },
              "h_t": [
                -0.07196650428060362,
                -0.0190794313892348,
                0.07896458498150326
              ],
              "c_t": [
                -0.12624625334486345,
                -0.0436532970163308,
                0.15479419833847755
              ]
            },
            "layer2": {
              "h_prev": [
                0.006551717399949813,
                -0.019991236470330385,
                0.003017987417461989,
                0.005010955657998883
              ],
              "c_prev": [
                0.013303325887810288,
                -0.03962267959502535,
                0.005989214594667509,
                0.009993336259679965
              ],
              "x_t": [
                -0.07196650428060362,
                -0.0190794313892348,
                0.07896458498150326
              ],
              "gates": {
                "forget": {
                  "W_ih_x": [
                    -0.05691537728176958,
                    0.0037879999524384547,
                    0.043973234131284566,
                    0.0014967965151433643
                  ],
                  "W_hh_h": [
                    4.226532872382343e-05,
                    -0.005581679022867103,
                    0.002303772114915899,
                    0.002757197858107114
                  ],
                  "sum": [
                    0.9431268880469542,
                    0.9982063209295714,
                    1.0462770062462006,
                    1.0042539943732505
                  ],
                  "sigmoid": [
                    0.7197308412925295,
                    0.7307057737967659,
                    0.7400593415911949,
                    0.7318941421340046
                  ]
                },
                "input": {
                  "W_ih_x": [
                    0.029832493441917816,
                    0.04786593794611779,
                    -0.005939674593745565,
                    0.002700013741161598
                  ],
                  "W_hh_h": [
                    -0.005576852184802422,
                    0.00044683903609388513,
                    0.0009774010646686818,
                    -0.0017290241997043386
                  ],
                  "sum": [
                    0.024255641257115393,
                    0.048312776982211675,
                    -0.004962273529076883,
                    0.0009709895414572595
                  ],
                  "sigmoid": [
                    0.5060636130303071,
                    0.512075845459776,
                    0.4987594341633873,
                    0.500242747366292
                  ]
                },
                "candidate": {
                  "W_ih_x": [
                    0.018602991983551292,
                    -0.06070348978843188,
                    0.013824716181774893,
                    0.014857406776519493
                  ],
                  "W_hh_h": [
                    0.005685697828335116,
                    0.010617978019099934,
                    -0.005929750991117437,
                    -0.013847292824792324
                  ],
                  "sum": [
                    0.024288689811886408,
                    -0.050085511769331945,
                    0.007894965190657455,
                    0.0010101139517271693
                  ],
                  "tanh": [
                    0.024283914645153847,
                    -0.05004367293898017,
                    0.007894801162435938,
                    0.0010101136081773876
                  ]
                },
                "output": {
                  "W_ih_x": [
                    -0.034129231103002464,
                    -0.002315381941468862,
                    0.012734192663851097,
                    -0.00044523386081554565
                  ],
                  "W_hh_h": [
                    -0.009091247418220923,
                    0.007988124163417123,
                    0.0016252967354417262,
                    -0.0015499632510927496
                  ],
                  "sum": [
                    -0.04322047852122339,
                    0.005672742221948261,
                    0.014359489399292824,
                    -0.0019951971119082953
                  ],
                  "sigmoid": [
                    0.48919656206130036,
                    0.5014181817523978,
                    0.5035898106666369,
                    0.4995012008874916
                  ]
                },
                "c_t": [
                  0.021864019517068532,
                  -0.05457867688352511,
                  0.008369980770187014,
                  0.007819366275341846
                ]
              },
              "h_t": [
                0.010694099182415234,
                -0.027339599623749926,
                0.004214938603743085,
                0.003905703243564404
              ],
              "c_t": [
                0.021864019517068532,
                -0.05457867688352511,
                0.008369980770187014,
                0.007819366275341846
              ]
            }
          },
          {
            "t": 4,
            "input": "pizza",
            "layer1": {
              "h_prev": [
                -0.07196650428060362,
                -0.0190794313892348,
                0.07896458498150326
              ],
              "c_prev": [
                -0.12624625334486345,
                -0.0436532970163308,
                0.15479419833847755
              ],
              "x_t": [
                0.6,
                0.1,
                0.7,
                0.5
              ],
              "gates": {
                "forget": {
                  "W_ih_x": [
                    -0.043999999999999984,
                    -0.02800000000000001,
                    -0.03600000000000003
                  ],
                  "W_hh_h": [
                    0.04270705842968955,
                    0.005409931505922876,
                    0.00046328450059348263
                  ],
                  "sum": [
                    0.9987070584296895,
                    0.9774099315059228,
                    0.9644632845005935
                  ],
                  "sigmoid": [
                    0.7308042949576846,
                    0.7265939879430491,
                    0.7240145385240753
                  ]
                },
                "input": {
                  "W_ih_x": [
                    -0.205,
                    0.663,
                    0.32
                  ],
                  "W_hh_h": [
                    0.004465868669322791,
                    -0.01272726077851537,
                    0.05371588731436214
                  ],
                  "sum": [
                    -0.20053413133067718,
                    0.6502727392214847,
                    0.3737158873143621
                  ],
                  "sigmoid": [
                    0.4500337998532797,
                    0.6570719212015311,
                    0.5923565617348988
                  ]
                },
                "candidate": {
                  "W_ih_x": [
                    -0.4019999999999999,
                    0.05399999999999999,
                    0.2729999999999999
                  ],
                  "W_hh_h": [
                    0.014637010250376984,
                    -0.03576516781235854,
                    -0.020871591418314066
                  ],
                  "sum": [
                    -0.3873629897496229,
                    0.01823483218764145,
                    0.25212840858168584
                  ],
                  "tanh": [
                    -0.36908466039549787,
                    0.01823281137384031,
                    0.24691835264271597
                  ]
                },
                "output": {
                  "W_ih_x": [
                    0.13899999999999998,
                    -0.087,
                    -0.22799999999999998
                  ],
                  "W_hh_h": [
                    0.0037532038498215925,
                    -0.013364728792513495,
                    0.03330229606017837
                  ],
                  "sum": [
                    0.14275320384982157,
                    -0.10036472879251349,
                    -0.1946977039398216
                  ],
                  "sigmoid": [
                    0.5356278181119878,
                    0.47492985872869314,
                    0.4514787526342176
                  ]
                },
                "c_t": [
                  -0.25836187635208535,
                  -0.01973795476764382,
                  0.2583369564769215
                ]
              },
              "h_t": [
                -0.13538673515261876,
                -0.00937292691128616,
                0.11410645784183687
              ],
              "c_t": [
                -0.25836187635208535,
                -0.01973795476764382,
                0.2583369564769215
              ]
            },
            "layer2": {
              "h_prev": [
                0.010694099182415234,
                -0.027339599623749926,
                0.004214938603743085,
                0.003905703243564404
              ],
              "c_prev": [
                0.021864019517068532,
                -0.05457867688352511,
                0.008369980770187014,
                0.007819366275341846
              ],
              "x_t": [
                -0.13538673515261876,
                -0.00937292691128616,
                0.11410645784183687
              ],
              "gates": {
                "forget": {
                  "W_ih_x": [
                    -0.0853071112720694,
                    -0.00731962746179108,
                    0.058707076265758454,
                    0.012140459762260157
                  ],
                  "W_hh_h": [
                    6.427733752113404e-05,
                    -0.006814954960193704,
                    0.003411611931154342,
                    0.003341280099891826
                  ],
                  "sum": [
                    0.9147571660654518,
                    0.9858654175780153,
                    1.0621186881969127,
                    1.015481739862152
                  ],
                  "sigmoid": [
                    0.7139726388498119,
                    0.7282704918139905,
                    0.7430952211398966,
                    0.7340915632957945
                  ]
                },
                "input": {
                  "W_ih_x": [
                    0.04727625508019698,
                    0.08909968922216575,
                    0.00475631049761576,
                    0.008965827136215578
                  ],
                  "W_hh_h": [
                    -0.007283856051028327,
                    0.0014053968796352756,
                    0.002191195344165932,
                    -0.002026375610443763
                  ],
                  "sum": [
                    0.03999239902916865,
                    0.09050508610180102,
                    0.006947505841781692,
                    0.006939451525771814
                  ],
                  "sigmoid": [
                    0.5099967673970077,
                    0.5226108395284107,
                    0.5017368694742066,
                    0.5017348559194735
                  ]
                },
                "candidate": {
                  "W_ih_x": [
                    0.02524849126514459,
                    -0.09371077277422599,
                    0.018853418782901674,
                    0.029035612787842793
                  ],
                  "W_hh_h": [
                    0.009398807516843119,
                    0.014229317826262224,
                    -0.008002369831750265,
                    -0.01843544375145877
                  ],
                  "sum": [
                    0.03464729878198771,
                    -0.07948145494796377,
                    0.01085104895115141,
                    0.010600169036384024
                  ],
                  "tanh": [
                    0.03463344148887858,
                    -0.07931450735562463,
                    0.010850623084670144,
                    0.010599772029901079
                  ]
                },
                "output": {
                  "W_ih_x": [
                    -0.055118636589185074,
                    -0.001771017199711502,
                    0.012528114550292064,
                    0.014693362625214867
                  ],
                  "W_hh_h": [
                    -0.01235837707552819,
                    0.01135884828584551,
                    0.0013168445831824346,
                    -0.0020767066574261563
                  ],
                  "sum": [
                    -0.06747701366471326,
                    0.009587831086134008,
                    0.013844959133474498,
                    0.012616655967788711
                  ],
                  "sigmoid": [
                    0.48313714435391164,
                    0.5023969394097064,
                    0.5034611844960569,
                    0.5031541221526258
                  ]
                },
                "c_t": [
                  0.03327325491362669,
                  -0.081198661132427,
                  0.011663850369705759,
                  0.011058405905249792
                ]
              },
              "h_t": [
                0.01606961552535087,
                -0.04070454010270514,
                0.005872029637780992,
                0.005563855719283538
              ],
              "c_t": [
                0.03327325491362669,
                -0.081198661132427,
                0.011663850369705759,
                0.011058405905249792
              ]
            }
          },
          {
            "t": 5,
            "input": "de",
            "layer1": {
              "h_prev": [
                -0.13538673515261876,
                -0.00937292691128616,
                0.11410645784183687
              ],
              "c_prev": [
                -0.25836187635208535,
                -0.01973795476764382,
                0.2583369564769215
              ],
              "x_t": [
                0.0,
                0.3,
                -0.4,
                0.2
              ],
              "gates": {
                "forget": {
                  "W_ih_x": [
                    0.186,
                    0.13699999999999998,
                    -0.398
                  ],
                  "W_hh_h": [
                    0.06934742490176758,
                    0.022876573683848125,
                    -0.017979055877669327
                  ],
                  "sum": [
                    1.2553474249017675,
                    1.1598765736838481,
                    0.5840209441223306
                  ],
                  "sigmoid": [
                    0.7782241532433435,
                    0.7613102869145569,
                    0.6419920997702453
                  ]
                },
                "input": {
                  "W_ih_x": [
                    -0.024,
                    -0.107,
                    -0.13899999999999998
                  ],
                  "W_hh_h": [
                    -0.0023133726395622514,
                    -0.009369352452866271,
                    0.09679757537900112
                  ],
                  "sum": [
                    -0.026313372639562252,
                    -0.11636935245286627,
                    -0.042202424620998866
                  ],
                  "sigmoid": [
                    0.493422036380711,
                    0.470940447771607,
                    0.48945095949095085
                  ]
                },
                "candidate": {
                  "W_ih_x": [
                    0.30200000000000005,
                    -0.23100000000000004,
                    -0.279
                  ],
                  "W_hh_h": [
                    0.01707423347905372,
                    -0.046896169170241225,
                    -0.03196692957239316
                  ],
                  "sum": [
                    0.3190742334790538,
                    -0.2778961691702413,
                    -0.3109669295723932
                  ],
                  "tanh": [
                    0.3086695983845551,
                    -0.2709568214160413,
                    -0.30131649354845097
                  ]
                },
                "output": {
                  "W_ih_x": [
                    -0.14,
                    0.016000000000000014,
                    0.122
                  ],
                  "W_hh_h": [
                    -0.00804346457874845,
                    -0.014826922263362387,
                    0.053901251712226546
                  ],
                  "sum": [
                    -0.14804346457874845,
                    0.0011730777366376274,
                    0.17590125171222654
                  ],
                  "sigmoid": [
                    0.46305658288584134,
                    0.5002932694005284,
                    0.5438622750712158
                  ]
                },
                "c_t": [
                  -0.04875907065073962,
                  -0.1426312348117033,
                  0.01837063825913507
                ]
              },
              "h_t": [
                -0.022560332808319976,
